{"learner":{"attributes":{"scikit_learn":"{\"_estimator_type\": \"classifier\"}"},"feature_names":[],"feature_types":[],"gradient_booster":{"model":{"cats":{"enc":[],"feature_segments":[],"sorted_idx":[]},"gbtree_model_param":{"num_parallel_tree":"1","num_trees":"600"},"iteration_indptr":[0,3,6,9,12,15,18,21,24,27,30,33,36,39,42,45,48,51,54,57,60,63,66,69,72,75,78,81,84,87,90,93,96,99,102,105,108,111,114,117,120,123,126,129,132,135,138,141,144,147,150,153,156,159,162,165,168,171,174,177,180,183,186,189,192,195,198,201,204,207,210,213,216,219,222,225,228,231,234,237,240,243,246,249,252,255,258,261,264,267,270,273,276,279,282,285,288,291,294,297,300,303,306,309,312,315,318,321,324,327,330,333,336,339,342,345,348,351,354,357,360,363,366,369,372,375,378,381,384,387,390,393,396,399,402,405,408,411,414,417,420,423,426,429,432,435,438,441,444,447,450,453,456,459,462,465,468,471,474,477,480,483,486,489,492,495,498,501,504,507,510,513,516,519,522,525,528,531,534,537,540,543,546,549,552,555,558,561,564,567,570,573,576,579,582,585,588,591,594,597,600],"tree_info":[0,1,2,0,1,2,0,1,2,0,1,2,0,1,2,0,1,2,0,1,2,0,1,2,0,1,2,0,1,2,0,1,2,0,1,2,0,1,2,0,1,2,0,1,2,0,1,2,0,1,2,0,1,2,0,1,2,0,1,2,0,1,2,0,1,2,0,1,2,0,1,2,0,1,2,0,1,2,0,1,2,0,1,2,0,1,2,0,1,2,0,1,2,0,1,2,0,1,2,0,1,2,0,1,2,0,1,2,0,1,2,0,1,2,0,1,2,0,1,2,0,1,2,0,1,2,0,1,2,0,1,2,0,1,2,0,1,2,0,1,2,0,1,2,0,1,2,0,1,2,0,1,2,0,1,2,0,1,2,0,1,2,0,1,2,0,1,2,0,1,2,0,1,2,0,1,2,0,1,2,0,1,2,0,1,2,0,1,2,0,1,2,0,1,2,0,1,2,0,1,2,0,1,2,0,1,2,0,1,2,0,1,2,0,1,2,0,1,2,0,1,2,0,1,2,0,1,2,0,1,2,0,1,2,0,1,2,0,1,2,0,1,2,0,1,2,0,1,2,0,1,2,0,1,2,0,1,2,0,1,2,0,1,2,0,1,2,0,1,2,0,1,2,0,1,2,0,1,2,0,1,2,0,1,2,0,1,2,0,1,2,0,1,2,0,1,2,0,1,2,0,1,2,0,1,2,0,1,2,0,1,2,0,1,2,0,1,2,0,1,2,0,1,2,0,1,2,0,1,2,0,1,2,0,1,2,0,1,2,0,1,2,0,1,2,0,1,2,0,1,2,0,1,2,0,1,2,0,1,2,0,1,2,0,1,2,0,1,2,0,1,2,0,1,2,0,1,2,0,1,2,0,1,2,0,1,2,0,1,2,0,1,2,0,1,2,0,1,2,0,1,2,0,1,2,0,1,2,0,1,2,0,1,2,0,1,2,0,1,2,0,1,2,0,1,2,0,1,2,0,1,2,0,1,2,0,1,2,0,1,2,0,1,2,0,1,2,0,1,2,0,1,2,0,1,2,0,1,2,0,1,2,0,1,2,0,1,2,0,1,2,0,1,2,0,1,2,0,1,2,0,1,2,0,1,2,0,1,2,0,1,2,0,1,2,0,1,2,0,1,2,0,1,2,0,1,2,0,1,2,0,1,2,0,1,2,0,1,2,0,1,2,0,1,2,0,1,2,0,1,2,0,1,2,0,1,2,0,1,2,0,1,2,0,1,2,0,1,2,0,1,2,0,1,2,0,1,2,0,1,2,0,1,2,0,1,2,0,1,2,0,1,2,0,1,2,0,1,2,0,1,2,0,1,2,0,1,2,0,1,2,0,1,2,0,1,2,0,1,2],"trees":[{"base_weights":[2.5617874E-3,1.8424752E-1,-2.7457622E-1,5.8786654E-1,-6.0246565E-4,-4.163174E-2,-5.0042325E-1,-4.8444635E-1,6.925201E-1,-5.6534857E-1,1.5915394E-1,3.252392E-1,-2.833E-1,-1.8524823E-1,-6.0173905E-1,-6.482118E-1,-1.0495952E-1,2.152968E-1,8.562386E-1,-6.055809E-1,7.404169E-1,2.8321832E-1,-3.1907302E-1,7.8813076E-1,2.1402186E-2,-7.9467915E-2,-6.5430725E-1,-3.4333944E-1,3.9139116E-1,5.435672E-3,-6.089593E-1,-3.5050172E-2,2.1337693E-4,3.1348455E-1,-2.9091528E-2,6.4444417E-1,-2.4312785E-1,3.955773E-1,1.0333536E0,4.9791285E-1,-6.4733344E-1,5.2161288E-2,2.1337693E-4,-1.3077778E-1,4.6526653E-1,-6.8893105E-1,1.9879278E-2,9.330986E-1,-2.9821744E-2,7.81821E-1,-1.244365E-1,-3.430865E-1,6.040101E-1,-6.831969E-1,-7.573302E-2,-1.7621663E-1,-6.2022656E-1,9.3183106E-1,-3.1397965E-2,-2.1276765E-2,2.1703519E-2,-2.865038E-1,-6.250671E-1,-1.3414486E-2,4.839359E-2,4.0976303E-3,5.7899218E-2,4.5047287E-2,-1.9514775E-2,-5.8884583E-3,3.212152E-2,3.6371354E-2,6.720126E-2,-2.1276765E-2,4.5047287E-2,-8.128914E-3,-3.4085948E-2,5.5677006E-3,-3.1234523E-2,3.1116238E-2,-1.1464726E-3,-1.5541543E-2,-3.6438163E-2,-2.429316E-2,3.1731512E-2,-2.569413E-2,5.1306408E-2,-2.569413E-2,5.70593E-2,5.2161288E-2,-9.320765E-3,2.5638416E-2,-2.7239311E-2,-1.1594983E-2,4.984814E-2,2.1337693E-4,-3.4949128E-2,2.1703519E-2,-2.3838198E-2,-2.2281634E-2,1.7782545E-2,2.1337693E-4,-3.3046648E-2,6.582817E-2,3.9646584E-3,-2.8445197E-2,2.7644325E-2,-2.7132142E-2,-3.4417316E-2],"categories":[],"categories_nodes":[],"categories_segments":[],"categories_sizes":[],"default_left":[1,1,0,1,0,0,0,0,0,0,0,0,0,0,0,1,0,0,1,0,0,0,0,0,0,0,0,0,0,0,0,0,0,0,0,0,0,0,0,0,0,0,0,0,0,0,0,0,0,0,0,0,0,0,0,0,0,0,0,0,0,0,0,0,0,0,0,0,0,0,0,0,0,0,0,0,0,0,0,0,0,0,0,0,0,0,0,0,0,0,0,0,0,0,0,0,0,0,0,0,0,0,0,0,0,0,0,0,0],"id":0,"left_children":[1,3,5,7,9,11,13,15,17,19,21,23,25,27,29,31,33,35,37,39,41,43,45,47,49,51,53,55,57,59,61,-1,-1,63,-1,65,67,69,71,73,75,-1,-1,77,79,81,83,85,-1,87,89,91,93,95,97,99,101,103,-1,-1,-1,105,107,-1,-1,-1,-1,-1,-1,-1,-1,-1,-1,-1,-1,-1,-1,-1,-1,-1,-1,-1,-1,-1,-1,-1,-1,-1,-1,-1,-1,-1,-1,-1,-1,-1,-1,-1,-1,-1,-1,-1,-1,-1,-1,-1,-1,-1,-1],"loss_changes":[7.5138954E1,6.724929E1,3.106717E1,3.2109146E1,5.5956947E1,2.5979237E1,9.466217E0,1.5331211E0,2.0002167E1,7.6329536E0,2.8774364E1,1.6356636E1,1.3300017E1,6.9175215E0,9.9640656E-1,6.162658E-1,1.9702858E0,1.3403105E1,1.5259552E1,6.4603615E0,1.0070648E0,2.9032116E1,1.2557188E1,9.81082E0,8.005719E0,2.0944172E1,9.923992E-1,2.6176548E0,9.662601E0,8.595825E-1,9.8373413E-1,0E0,0E0,2.3239172E0,0E0,1.0029899E1,5.9553065E0,7.039033E0,1.2146469E1,2.401404E0,2.0360832E0,0E0,0E0,1.420381E1,2.0502964E1,4.9450302E-1,1.6842773E1,6.1979866E0,0E0,5.9938893E0,4.58729E0,1.4727149E1,1.0872846E1,6.47295E-1,1.0442641E0,5.62459E0,5.565939E-1,3.5596704E0,0E0,0E0,0E0,3.2770233E0,7.341919E-1,0E0,0E0,0E0,0E0,0E0,0E0,0E0,0E0,0E0,0E0,0E0,0E0,0E0,0E0,0E0,0E0,0E0,0E0,0E0,0E0,0E0,0E0,0E0,0E0,0E0,0E0,0E0,0E0,0E0,0E0,0E0,0E0,0E0,0E0,0E0,0E0,0E0,0E0,0E0,0E0,0E0,0E0,0E0,0E0,0E0,0E0],"parents":[2147483647,0,0,1,1,2,2,3,3,4,4,5,5,6,6,7,7,8,8,9,9,10,10,11,11,12,12,13,13,14,14,15,15,16,16,17,17,18,18,19,19,20,20,21,21,22,22,23,23,24,24,25,25,26,26,27,27,28,28,29,29,30,30,33,33,35,35,36,36,37,37,38,38,39,39,40,40,43,43,44,44,45,45,46,46,47,47,49,49,50,50,51,51,52,52,53,53,54,54,55,55,56,56,57,57,61,61,62,62],"right_children":[2,4,6,8,10,12,14,16,18,20,22,24,26,28,30,32,34,36,38,40,42,44,46,48,50,52,54,56,58,60,62,-1,-1,64,-1,66,68,70,72,74,76,-1,-1,78,80,82,84,86,-1,88,90,92,94,96,98,100,102,104,-1,-1,-1,106,108,-1,-1,-1,-1,-1,-1,-1,-1,-1,-1,-1,-1,-1,-1,-1,-1,-1,-1,-1,-1,-1,-1,-1,-1,-1,-1,-1,-1,-1,-1,-1,-1,-1,-1,-1,-1,-1,-1,-1,-1,-1,-1,-1,-1,-1,-1],"split_conditions":[1.0229725E-1,-3.1677082E-1,-4.4496763E-1,-1.8601192E0,-5.0525755E-1,7.946326E-1,-1.1828175E0,-1.8812005E-1,-8.679029E-1,2.3472962E0,1.6835281E0,-5.380561E-1,-8.679584E-1,-4.331993E-1,-1.4637326E0,1.0932107E0,8.6026496E-1,-1.0591438E0,-8.3219653E-1,-9.093161E-1,4.8578426E-1,1.7196651E-1,6.567892E-1,1.0337695E0,-1.0329411E0,-4.660613E-1,1.3622867E0,-4.923323E-1,-5.648861E-1,-6.383537E-1,1.4053658E-1,-3.5050172E-2,2.1337693E-4,3.698832E-2,-2.9091528E-2,-9.959784E-1,-1.1480774E0,-2.3339447E-1,-6.719426E-1,-1.0484828E0,-4.965122E-1,5.2161288E-2,2.1337693E-4,7.772016E-1,1.0434417E0,1.2964214E0,1.0976518E0,-8.9928216E-1,-2.9821744E-2,-5.5916417E-1,-1.1634085E0,1.0000391E0,-1.2783412E0,-8.532236E-1,-3.0912706E-1,-7.303242E-1,2.805205E-1,-1.4777184E0,-3.1397965E-2,-2.1276765E-2,2.1703519E-2,2.4177869E-1,-2.4828966E-1,-1.3414486E-2,4.839359E-2,4.0976303E-3,5.7899218E-2,4.5047287E-2,-1.9514775E-2,-5.8884583E-3,3.212152E-2,3.6371354E-2,6.720126E-2,-2.1276765E-2,4.5047287E-2,-8.128914E-3,-3.4085948E-2,5.5677006E-3,-3.1234523E-2,3.1116238E-2,-1.1464726E-3,-1.5541543E-2,-3.6438163E-2,-2.429316E-2,3.1731512E-2,-2.569413E-2,5.1306408E-2,-2.569413E-2,5.70593E-2,5.2161288E-2,-9.320765E-3,2.5638416E-2,-2.7239311E-2,-1.1594983E-2,4.984814E-2,2.1337693E-4,-3.4949128E-2,2.1703519E-2,-2.3838198E-2,-2.2281634E-2,1.7782545E-2,2.1337693E-4,-3.3046648E-2,6.582817E-2,3.9646584E-3,-2.8445197E-2,2.7644325E-2,-2.7132142E-2,-3.4417316E-2],"split_indices":[8,20,22,17,4,8,19,22,3,16,21,0,20,21,2,19,22,3,5,1,0,21,0,2,10,3,23,3,10,5,8,0,0,11,0,1,0,18,0,0,22,0,0,0,9,6,2,6,0,1,20,8,7,3,0,1,8,19,0,0,0,1,22,0,0,0,0,0,0,0,0,0,0,0,0,0,0,0,0,0,0,0,0,0,0,0,0,0,0,0,0,0,0,0,0,0,0,0,0,0,0,0,0,0,0,0,0,0,0],"split_type":[0,0,0,0,0,0,0,0,0,0,0,0,0,0,0,0,0,0,0,0,0,0,0,0,0,0,0,0,0,0,0,0,0,0,0,0,0,0,0,0,0,0,0,0,0,0,0,0,0,0,0,0,0,0,0,0,0,0,0,0,0,0,0,0,0,0,0,0,0,0,0,0,0,0,0,0,0,0,0,0,0,0,0,0,0,0,0,0,0,0,0,0,0,0,0,0,0,0,0,0,0,0,0,0,0,0,0,0,0],"sum_hessian":[1.4902682E3,9.003519E2,5.8991626E2,2.8213385E2,6.182181E2,2.9097818E2,2.9893805E2,2.47641E1,2.5736975E2,1.3576033E2,4.8245773E2,1.15418396E2,1.7555978E2,7.340787E1,2.255302E2,1.680421E1,7.9598894E0,6.633241E1,1.9103734E2,1.3222261E2,3.5377285E0,3.8340134E2,9.90564E1,4.5106037E1,7.0312355E1,1.1409174E2,6.1468033E1,5.7930305E1,1.5477562E1,2.6532965E0,2.2287689E2,1.5477562E1,1.3266482E0,4.4221606E0,3.5377285E0,3.4050636E1,3.2281773E1,5.395036E1,1.3708698E2,4.4221606E0,1.27800446E2,2.2110803E0,1.3266482E0,1.17187256E2,2.6621408E2,4.6874905E1,5.2181496E1,4.1126095E1,3.9799447E0,1.0613186E1,5.969917E1,8.2694405E1,3.139734E1,5.837252E1,3.0955124E0,3.714615E1,2.0784155E1,1.017097E1,5.306593E0,1.3266482E0,1.3266482E0,1.1497618E1,2.1137929E2,2.6532965E0,1.7688643E0,1.680421E1,1.7246428E1,3.0955124E0,2.918626E1,1.7688643E1,3.626172E1,7.075457E1,6.633241E1,1.3266482E0,3.0955124E0,8.844321E0,1.1895612E2,7.915668E1,3.8030582E1,2.0120831E2,6.500576E1,5.306593E0,4.156831E1,2.8744045E1,2.3437452E1,2.2110803E0,3.8915012E1,2.2110803E0,8.402105E0,2.2110803E0,5.748809E1,1.5477562E1,6.721684E1,1.017097E1,2.1226372E1,1.3266482E0,5.704587E1,1.3266482E0,1.7688643E0,2.47641E1,1.238205E1,1.3266482E0,1.9457506E1,6.633241E0,3.5377285E0,8.844321E0,2.6532965E0,9.5960884E1,1.15418396E2],"tree_param":{"num_deleted":"0","num_feature":"24","num_nodes":"109","size_leaf_vector":"1"}},{"base_weights":[1.485377E-2,2.0136538E-1,-6.755855E-2,-2.1130921E-1,3.0936772E-1,-1.96058E-1,5.051643E-2,-5.6803864E-1,5.0238222E-2,7.0221823E-1,2.2100165E-1,-2.5062874E-1,2.6586777E-1,8.0223316E-1,-1.065288E-3,-6.518403E-1,-1.2439986E-2,2.663916E-1,-5.726001E-1,-3.0974075E-2,8.070633E-1,3.702006E-1,-5.1870987E-2,-4.3386734E-1,-1.4579749E-1,-4.6806726E-1,4.1540402E-1,1.3885093E-1,1.1458305E0,8.440194E-2,-4.0409622E-1,-1.0755546E-2,-7.0404065E-1,3.5455365E-2,-2.8730331E-2,-1.4268273E-2,9.012331E-1,-3.4886178E-2,4.6277833E-3,3.8764742E-1,9.917824E-1,5.3816473E-1,3.119056E-2,-2.69377E-1,4.0344656E-1,4.6625614E-2,-4.7048876E-1,9.185863E-2,-2.777396E-1,-3.3245925E-2,2.0886889E-2,5.6466424E-1,-5.003485E-1,-4.822738E-1,6.33859E-1,1.2642269E0,-2.1733241E-2,-3.118668E-2,5.747755E-1,-5.0087875E-1,4.2113087E-1,2.0886889E-2,-2.1733241E-2,-4.231766E-4,-3.6674283E-2,2.7297521E-2,-1.630274E-2,-2.1733241E-2,5.4548085E-2,5.1130544E-2,-9.170679E-3,5.3201187E-2,-1.0786007E-2,2.25484E-2,6.412121E-2,2.5535822E-2,-6.787225E-3,3.3625923E-2,-2.3352904E-2,2.9726297E-2,-1.4909225E-2,-3.2627877E-2,-1.8571304E-2,6.8358326E-4,4.1105878E-2,-2.6280323E-2,-4.2187413E-3,4.0536676E-2,9.282538E-3,-4.231766E-4,-3.0974075E-2,-3.0359378E-2,-4.231766E-4,4.6361383E-2,-2.1733241E-2,4.6277833E-3,6.9748856E-2,5.6747654E-3,-2.4645967E-2,3.589798E-2,-2.8651813E-2,-2.8654996E-2,1.53832985E-2,4.0829748E-2,-1.6657082E-2],"categories":[],"categories_nodes":[],"categories_segments":[],"categories_sizes":[],"default_left":[1,0,1,0,0,0,0,0,0,0,1,0,0,0,0,1,0,1,0,0,0,1,1,0,0,0,0,0,0,0,0,0,0,0,0,0,0,0,0,1,0,1,1,0,0,0,0,0,0,0,0,0,0,0,0,0,0,0,0,0,0,0,0,0,0,0,0,0,0,0,0,0,0,0,0,0,0,0,0,0,0,0,0,0,0,0,0,0,0,0,0,0,0,0,0,0,0,0,0,0,0,0,0,0,0],"id":1,"left_children":[1,3,5,7,9,11,13,15,17,19,21,23,25,27,29,31,33,35,37,-1,39,41,43,45,47,49,51,53,55,57,59,61,63,-1,-1,65,67,-1,-1,69,71,73,75,77,79,-1,81,83,85,-1,-1,87,89,91,93,95,-1,97,99,101,103,-1,-1,-1,-1,-1,-1,-1,-1,-1,-1,-1,-1,-1,-1,-1,-1,-1,-1,-1,-1,-1,-1,-1,-1,-1,-1,-1,-1,-1,-1,-1,-1,-1,-1,-1,-1,-1,-1,-1,-1,-1,-1,-1,-1],"loss_changes":[2.3213064E1,2.0691566E1,1.5903641E1,9.040355E0,1.2591888E1,1.2716499E1,2.1199211E1,1.8980837E0,7.778902E0,9.780121E0,1.2282847E1,8.567808E0,6.066721E0,7.842947E0,1.7691006E1,1.1822786E0,2.9974995E0,7.6272507E0,1.3056412E0,0E0,4.456238E0,1.1079325E1,1.0740846E1,8.595354E0,9.034809E0,1.938936E0,6.430561E0,4.338602E0,4.8514633E0,2.4036247E1,7.3875465E0,8.5231143E-1,6.668606E-1,0E0,0E0,5.526153E0,3.7987576E0,0E0,0E0,7.7100716E0,3.9574165E0,7.874218E0,5.3224144E0,1.39532385E1,4.8839073E0,0E0,2.6328773E0,5.887965E0,8.822252E0,0E0,0E0,3.500329E0,3.9522803E-1,3.72774E-1,2.8266513E0,3.1865807E0,0E0,2.3027308E1,1.3704081E1,4.899294E0,3.247579E0,0E0,0E0,0E0,0E0,0E0,0E0,0E0,0E0,0E0,0E0,0E0,0E0,0E0,0E0,0E0,0E0,0E0,0E0,0E0,0E0,0E0,0E0,0E0,0E0,0E0,0E0,0E0,0E0,0E0,0E0,0E0,0E0,0E0,0E0,0E0,0E0,0E0,0E0,0E0,0E0,0E0,0E0,0E0,0E0],"parents":[2147483647,0,0,1,1,2,2,3,3,4,4,5,5,6,6,7,7,8,8,9,9,10,10,11,11,12,12,13,13,14,14,15,15,16,16,17,17,18,18,20,20,21,21,22,22,23,23,24,24,25,25,26,26,27,27,28,28,29,29,30,30,31,31,32,32,35,35,36,36,39,39,40,40,41,41,42,42,43,43,44,44,46,46,47,47,48,48,51,51,52,52,53,53,54,54,55,55,57,57,58,58,59,59,60,60],"right_children":[2,4,6,8,10,12,14,16,18,20,22,24,26,28,30,32,34,36,38,-1,40,42,44,46,48,50,52,54,56,58,60,62,64,-1,-1,66,68,-1,-1,70,72,74,76,78,80,-1,82,84,86,-1,-1,88,90,92,94,96,-1,98,100,102,104,-1,-1,-1,-1,-1,-1,-1,-1,-1,-1,-1,-1,-1,-1,-1,-1,-1,-1,-1,-1,-1,-1,-1,-1,-1,-1,-1,-1,-1,-1,-1,-1,-1,-1,-1,-1,-1,-1,-1,-1,-1,-1,-1,-1],"split_conditions":[-4.9931315E-1,-1.0087314E0,-3.2579914E-1,-1.0996478E0,-4.6740037E-1,1.3858409E0,-1.1837974E0,-9.0906495E-1,7.3284477E-1,-1.051621E0,-9.440896E-1,2.238771E-1,1.3438998E0,-1.1799496E0,1.0267567E-1,1.9868614E-1,-7.127279E-1,-2.1512066E-1,-7.4150836E-1,-3.0974075E-2,-5.249897E-1,-3.152088E-1,6.954945E-1,-1.2675544E0,-4.3268007E-1,9.8883456E-1,3.2997172E0,-3.4535578E-1,2.3135126E-1,-2.807015E-1,7.483404E-1,2.1588327E-1,-9.877671E-1,3.5455365E-2,-2.8730331E-2,-6.558731E-1,-1.787582E-1,-3.4886178E-2,4.6277833E-3,-7.958286E-1,2.0798788E0,1.9542854E0,-3.105665E-1,-7.0393926E-1,2.2754164E0,4.6625614E-2,-2.0980988E-1,-2.1255303E-2,-7.3318654E-3,-3.3245925E-2,2.0886889E-2,4.550684E-1,7.160601E-1,-1.0247965E-1,6.207047E-1,-6.276965E-1,-2.1733241E-2,-1.5043794E-1,1.22658E0,5.6740934E-1,3.1652194E-1,2.0886889E-2,-2.1733241E-2,-4.231766E-4,-3.6674283E-2,2.7297521E-2,-1.630274E-2,-2.1733241E-2,5.4548085E-2,5.1130544E-2,-9.170679E-3,5.3201187E-2,-1.0786007E-2,2.25484E-2,6.412121E-2,2.5535822E-2,-6.787225E-3,3.3625923E-2,-2.3352904E-2,2.9726297E-2,-1.4909225E-2,-3.2627877E-2,-1.8571304E-2,6.8358326E-4,4.1105878E-2,-2.6280323E-2,-4.2187413E-3,4.0536676E-2,9.282538E-3,-4.231766E-4,-3.0974075E-2,-3.0359378E-2,-4.231766E-4,4.6361383E-2,-2.1733241E-2,4.6277833E-3,6.9748856E-2,5.6747654E-3,-2.4645967E-2,3.589798E-2,-2.8651813E-2,-2.8654996E-2,1.53832985E-2,4.0829748E-2,-1.6657082E-2],"split_indices":[5,10,8,11,4,1,4,14,0,11,5,13,3,0,1,8,6,16,14,0,23,11,16,0,1,0,3,7,2,16,4,0,23,0,0,1,0,0,0,5,22,16,17,1,16,0,10,3,0,0,0,4,2,1,2,9,0,4,9,16,8,0,0,0,0,0,0,0,0,0,0,0,0,0,0,0,0,0,0,0,0,0,0,0,0,0,0,0,0,0,0,0,0,0,0,0,0,0,0,0,0,0,0,0,0],"split_type":[0,0,0,0,0,0,0,0,0,0,0,0,0,0,0,0,0,0,0,0,0,0,0,0,0,0,0,0,0,0,0,0,0,0,0,0,0,0,0,0,0,0,0,0,0,0,0,0,0,0,0,0,0,0,0,0,0,0,0,0,0,0,0,0,0,0,0,0,0,0,0,0,0,0,0,0,0,0,0,0,0,0,0,0,0,0,0,0,0,0,0,0,0,0,0,0,0,0,0,0,0,0,0,0,0],"sum_hessian":[1.508315E3,4.61784E2,1.0465309E3,9.5587944E1,3.6619608E2,5.0082697E2,5.457039E2,3.9940502E1,5.564744E1,6.596915E1,3.0022693E2,4.4832092E2,5.2506054E1,3.4106495E1,5.1159744E2,3.4555267E1,5.3852363E0,4.173558E1,1.391186E1,4.4876966E0,6.148145E1,1.938685E2,1.0635841E2,1.6200586E2,2.8631506E2,8.526624E0,4.397943E1,1.2116781E1,2.1989716E1,4.2274106E2,8.88564E1,2.6926181E0,3.1862648E1,2.2438483E0,3.141388E0,2.96188E1,1.2116781E1,1.1668012E1,2.2438483E0,1.9745867E1,4.173558E1,1.2924567E2,6.462283E1,7.225192E1,3.4106495E1,3.5901575E0,1.584157E2,1.0231949E2,1.8399557E2,7.180315E0,1.3463091E0,3.8145424E1,5.834006E0,5.3852363E0,6.7315454E0,2.0643406E1,1.3463091E0,3.4286005E2,7.9881004E1,7.9881004E1,8.975393E0,1.3463091E0,1.3463091E0,1.3463091E0,3.0516338E1,1.0321703E1,1.9297096E1,1.3463091E0,1.0770473E1,8.975393E0,1.0770473E1,3.9491734E1,2.2438483E0,1.1712889E2,1.2116781E1,1.6155708E1,4.8467125E1,1.2116781E1,6.013514E1,2.6926182E1,7.180315E0,5.3852364E1,1.0456334E2,9.334409E1,8.975393E0,7.9881004E1,1.0411457E2,2.2438484E1,1.5706939E1,1.3463091E0,4.4876966E0,4.038927E0,1.3463091E0,5.3852363E0,1.3463091E0,2.2438483E0,1.8399557E1,2.6163272E2,8.122731E1,7.135438E1,8.526624E0,7.359823E1,6.282776E0,5.834006E0,3.141388E0],"tree_param":{"num_deleted":"0","num_feature":"24","num_nodes":"105","size_leaf_vector":"1"}},{"base_weights":[-5.8648074E-3,9.5836975E-2,-5.208884E-1,5.591683E-1,-1.941701E-2,-6.369878E-1,3.076337E-1,4.0190956E-1,1.2778821E0,-3.3569357E-1,1.7435347E-1,-1.17881596E-1,-7.058645E-1,7.1019423E-3,7.536945E-1,9.9996096E-1,1.7957943E-2,5.4968107E-1,1.3721231E0,-4.2690402E-1,7.580833E-1,7.5411516E-1,-1.4467179E-2,7.4513286E-1,-3.4479702E-1,-7.108383E-1,2.1337693E-4,-1.8493699E-1,5.2161288E-2,9.3183106E-1,-2.1276765E-2,1.4055653E0,5.6069E-1,8.349247E-1,-1.4631534E-1,-2.569413E-2,5.9058305E-2,1.4160078E0,6.567761E-1,5.36294E-1,-5.0541675E-1,1.1196542E0,2.8733718E-1,-6.31035E-1,8.997003E-1,3.0573562E-1,-2.057275E-1,2.1337693E-4,4.8039574E-2,-5.5489457E-1,5.2161288E-2,-7.2564566E-1,-3.657411E-1,-5.605605E-1,2.2986606E-1,5.448038E-3,1.1227342E0,7.134899E-2,2.1703519E-2,5.872458E-2,3.5737947E-4,-2.7100757E-2,5.2970823E-2,2.8055618E-2,-1.5568967E-2,7.341393E-2,3.2838803E-2,2.1337693E-4,4.839359E-2,-1.6714477E-3,6.4923756E-2,-2.8508905E-2,9.744971E-3,5.448038E-3,6.343292E-2,-4.5228857E-3,5.0500434E-2,-3.4329E-2,-1.3414486E-2,3.4079289E-3,5.7309903E-2,1.0280971E-3,3.4062885E-2,-2.064269E-2,2.7991543E-2,-1.411919E-2,-3.4329E-2,-5.7802508E-3,-3.655043E-2,1.3958054E-2,-3.2125678E-2,2.1337693E-4,-3.2693993E-2,4.0460162E-2,-1.9781474E-2,2.7644325E-2,6.3740574E-2],"categories":[],"categories_nodes":[],"categories_segments":[],"categories_sizes":[],"default_left":[0,0,1,0,0,1,0,0,0,0,0,0,0,0,0,0,0,0,0,0,0,0,0,0,1,0,0,0,0,0,0,0,0,0,0,0,0,0,0,0,0,0,0,0,0,0,0,0,0,0,0,0,0,0,0,0,0,0,0,0,0,0,0,0,0,0,0,0,0,0,0,0,0,0,0,0,0,0,0,0,0,0,0,0,0,0,0,0,0,0,0,0,0,0,0,0,0],"id":2,"left_children":[1,3,5,7,9,11,13,15,17,19,21,23,25,27,29,31,33,35,37,39,41,43,45,47,49,51,-1,53,-1,55,-1,57,59,61,63,-1,-1,65,67,69,71,73,75,77,79,81,83,-1,-1,85,-1,87,89,91,93,-1,95,-1,-1,-1,-1,-1,-1,-1,-1,-1,-1,-1,-1,-1,-1,-1,-1,-1,-1,-1,-1,-1,-1,-1,-1,-1,-1,-1,-1,-1,-1,-1,-1,-1,-1,-1,-1,-1,-1,-1,-1],"loss_changes":[7.855455E1,6.6893814E1,2.398536E1,2.7688774E1,6.158542E1,7.684189E0,4.1598415E0,4.732757E1,2.2884674E0,3.8408295E1,6.8232994E1,5.475536E0,6.797638E-1,4.087506E0,3.0218263E0,1.3572235E1,1.711119E1,5.139646E0,2.8139496E-1,2.6966385E1,4.740961E0,3.1445976E1,2.8912558E1,9.3287444E-1,6.9315815E0,7.068634E-1,0E0,2.8340225E0,0E0,1.6324978E0,0E0,2.385788E-1,1.3703585E1,7.171258E0,1.2581321E1,0E0,0E0,4.442215E-1,8.272282E-1,1.1807077E1,1.4937752E1,2.3432446E0,3.9864209E0,1.2106943E-1,2.8407288E1,1.8893604E1,4.7090275E1,0E0,0E0,5.085144E-1,0E0,5.090332E-1,1.9364892E0,4.9836922E-1,3.5669646E0,0E0,7.164478E-2,0E0,0E0,0E0,0E0,0E0,0E0,0E0,0E0,0E0,0E0,0E0,0E0,0E0,0E0,0E0,0E0,0E0,0E0,0E0,0E0,0E0,0E0,0E0,0E0,0E0,0E0,0E0,0E0,0E0,0E0,0E0,0E0,0E0,0E0,0E0,0E0,0E0,0E0,0E0,0E0],"parents":[2147483647,0,0,1,1,2,2,3,3,4,4,5,5,6,6,7,7,8,8,9,9,10,10,11,11,12,12,13,13,14,14,15,15,16,16,17,17,18,18,19,19,20,20,21,21,22,22,23,23,24,24,25,25,27,27,29,29,31,31,32,32,33,33,34,34,37,37,38,38,39,39,40,40,41,41,42,42,43,43,44,44,45,45,46,46,49,49,51,51,52,52,53,53,54,54,56,56],"right_children":[2,4,6,8,10,12,14,16,18,20,22,24,26,28,30,32,34,36,38,40,42,44,46,48,50,52,-1,54,-1,56,-1,58,60,62,64,-1,-1,66,68,70,72,74,76,78,80,82,84,-1,-1,86,-1,88,90,92,94,-1,96,-1,-1,-1,-1,-1,-1,-1,-1,-1,-1,-1,-1,-1,-1,-1,-1,-1,-1,-1,-1,-1,-1,-1,-1,-1,-1,-1,-1,-1,-1,-1,-1,-1,-1,-1,-1,-1,-1,-1,-1],"split_conditions":[1.7945596E0,-7.6693547E-1,1.7915286E0,3.6682683E-1,-2.3528957E-1,-2.0012348E0,2.4858515E0,-7.7581406E-1,-5.4586035E-1,1.2250578E0,-5.330984E-1,-4.5341524E-1,2.6001182E0,-1.0107378E-1,1.2221743E0,-1.007123E0,-1.1427734E0,-2.1728167E-1,2.1959782E0,-1.1843663E0,-1.1201717E0,-4.546242E-1,1.7196651E-1,-5.3666735E-1,2.7564907E0,1.8191912E0,2.1337693E-4,2.1639082E0,5.2161288E-2,1.8940276E0,-2.1276765E-2,-8.062831E-1,-5.1803493E-1,-4.7238043E-1,-6.799281E-1,-2.569413E-2,5.9058305E-2,2.9871228E-1,3.302105E0,1.7532317E-1,-1.317513E-1,1.2834221E0,-9.525664E-1,3.2700518E-1,-2.7748024E-1,3.3615512E-1,1.5727508E0,2.1337693E-4,4.8039574E-2,-3.356862E-1,5.2161288E-2,-1.0275154E0,1.6880976E0,6.996E-1,4.1171374E0,5.448038E-3,1.4820801E-2,7.134899E-2,2.1703519E-2,5.872458E-2,3.5737947E-4,-2.7100757E-2,5.2970823E-2,2.8055618E-2,-1.5568967E-2,7.341393E-2,3.2838803E-2,2.1337693E-4,4.839359E-2,-1.6714477E-3,6.4923756E-2,-2.8508905E-2,9.744971E-3,5.448038E-3,6.343292E-2,-4.5228857E-3,5.0500434E-2,-3.4329E-2,-1.3414486E-2,3.4079289E-3,5.7309903E-2,1.0280971E-3,3.4062885E-2,-2.064269E-2,2.7991543E-2,-1.411919E-2,-3.4329E-2,-5.7802508E-3,-3.655043E-2,1.3958054E-2,-3.2125678E-2,2.1337693E-4,-3.2693993E-2,4.0460162E-2,-1.9781474E-2,2.7644325E-2,6.3740574E-2],"split_indices":[16,7,10,1,20,9,18,1,4,8,4,22,9,8,22,7,9,5,1,3,16,1,21,19,3,17,0,4,0,11,0,1,4,0,4,0,0,20,0,5,1,8,12,6,6,20,21,0,0,22,0,23,19,0,7,0,4,0,0,0,0,0,0,0,0,0,0,0,0,0,0,0,0,0,0,0,0,0,0,0,0,0,0,0,0,0,0,0,0,0,0,0,0,0,0,0,0],"split_type":[0,0,0,0,0,0,0,0,0,0,0,0,0,0,0,0,0,0,0,0,0,0,0,0,0,0,0,0,0,0,0,0,0,0,0,0,0,0,0,0,0,0,0,0,0,0,0,0,0,0,0,0,0,0,0,0,0,0,0,0,0,0,0,0,0,0,0,0,0,0,0,0,0,0,0,0,0,0,0,0,0,0,0,0,0,0,0,0,0,0,0,0,0,0,0,0,0],"sum_hessian":[1.4977858E3,1.2514714E3,2.4631435E2,2.4852544E2,1.00294604E3,2.1624365E2,3.0070692E1,2.0518826E2,4.3337173E1,3.8074805E2,6.22198E2,2.5648533E1,1.9059512E2,1.8573074E1,1.1497618E1,7.959889E1,1.2558936E2,5.748809E0,3.7588367E1,3.52004E2,2.8744045E1,1.5212233E2,4.7007568E2,4.8643765E0,2.0784155E1,1.8926848E2,1.3266482E0,1.6361994E1,2.2110803E0,1.017097E1,1.3266482E0,4.024166E1,3.935723E1,2.034194E1,1.0524742E2,2.2110803E0,3.5377285E0,3.4492855E1,3.0955124E0,2.6090748E1,3.2591324E2,1.5477562E1,1.3266482E1,1.4150914E1,1.3797142E2,1.7555978E2,2.945159E2,1.3266482E0,3.5377285E0,1.8573074E1,2.2110803E0,1.8042415E2,8.844321E0,8.402105E0,7.9598894E0,2.2110803E0,7.9598894E0,3.8915012E1,1.3266482E0,1.813086E1,2.1226372E1,2.6532965E0,1.7688643E1,1.9457506E1,8.578992E1,3.139734E1,3.0955124E0,1.3266482E0,1.7688643E0,1.5477562E1,1.0613186E1,2.9849585E2,2.7417397E1,2.2110803E0,1.3266482E1,9.286537E0,3.9799447E0,1.1497618E1,2.6532965E0,3.1839558E1,1.0613186E2,1.0038305E2,7.5176735E1,2.3216344E2,6.2352467E1,7.075457E0,1.1497618E1,1.7688643E0,1.7865529E2,2.6532965E0,6.191025E0,1.3266482E0,7.075457E0,3.9799447E0,3.9799447E0,2.6532965E0,5.306593E0],"tree_param":{"num_deleted":"0","num_feature":"24","num_nodes":"97","size_leaf_vector":"1"}},{"base_weights":[-8.667719E-3,1.652857E-1,-2.7488163E-1,5.649068E-1,-1.42662255E-2,-1.0117635E-1,-5.274959E-1,-3.4973133E-1,6.7136604E-1,-5.6113863E-1,1.4309153E-1,2.3417097E-1,-3.4251538E-1,-1.7714892E-1,-5.8045185E-1,-5.0984395E-1,6.1830725E-3,2.1648733E-1,8.2096374E-1,-5.983368E-1,3.821169E-1,2.6972187E-1,-3.284977E-1,6.1053485E-1,-1.7612705E-1,-1.5298527E-1,-6.5093476E-1,-4.7885573E-1,8.004207E-1,-4.8905354E-2,-5.916301E-1,-5.8739835E-1,1.7632745E-2,3.928116E-1,-2.882109E-2,6.9809026E-1,-2.8500056E-1,3.5859495E-1,9.842775E-1,6.1950527E-2,-6.575814E-1,7.108495E-1,-2.14482E-2,-1.8473738E-1,4.472504E-1,-6.37424E-1,-6.0400374E-2,9.3786335E-1,8.455526E-2,9.740341E-1,-3.379912E-1,-3.7814045E-1,5.0610644E-1,3.839845E-4,-6.624074E-1,-9.5861405E-2,-6.412965E-1,6.102438E-2,-2.3583012E-2,4.3054726E-2,-2.7901495E-2,-6.150105E-1,-3.351215E-1,-3.1751607E-2,5.276179E-4,-2.0782216E-2,2.2022344E-2,-2.1182058E-2,3.3413332E-2,4.2442616E-2,-2.8253747E-2,-1.9527517E-2,4.8464835E-2,-1.48878265E-2,3.087779E-2,3.675705E-2,6.524027E-2,3.9623868E-2,-2.0075744E-2,-1.3439027E-2,-3.4306068E-2,1.1365917E-2,4.6999853E-2,6.281531E-3,-2.5140032E-2,2.967045E-2,-9.917901E-4,-1.3664794E-2,-3.5822053E-2,-2.1872949E-2,2.7593045E-2,2.826123E-3,5.18645E-2,1.7728353E-2,-2.8222252E-2,6.224695E-2,4.8913183E-3,-1.1725655E-3,-2.908958E-2,1.4285847E-2,-2.527529E-2,-2.3209436E-2,4.3834794E-2,2.1132104E-4,-3.3710968E-2,2.612707E-2,-3.001211E-2,2.2540792E-4,-3.4641545E-2,-1.7881084E-2,-3.2354217E-2,1.706885E-2,-3.0589042E-2],"categories":[],"categories_nodes":[],"categories_segments":[],"categories_sizes":[],"default_left":[1,1,0,1,0,0,0,0,0,0,0,0,0,0,0,1,0,0,1,0,0,0,0,0,0,0,0,0,0,0,0,1,0,0,0,0,0,0,0,0,0,0,0,0,0,0,0,0,0,0,0,0,0,0,0,0,0,0,0,0,0,0,0,0,0,0,0,0,0,0,0,0,0,0,0,0,0,0,0,0,0,0,0,0,0,0,0,0,0,0,0,0,0,0,0,0,0,0,0,0,0,0,0,0,0,0,0,0,0,0,0,0,0],"id":3,"left_children":[1,3,5,7,9,11,13,15,17,19,21,23,25,27,29,31,33,35,37,39,41,43,45,47,49,51,53,55,57,59,61,63,65,67,-1,69,71,73,75,77,79,81,-1,83,85,87,89,91,93,95,97,99,101,-1,103,105,107,-1,-1,-1,-1,109,111,-1,-1,-1,-1,-1,-1,-1,-1,-1,-1,-1,-1,-1,-1,-1,-1,-1,-1,-1,-1,-1,-1,-1,-1,-1,-1,-1,-1,-1,-1,-1,-1,-1,-1,-1,-1,-1,-1,-1,-1,-1,-1,-1,-1,-1,-1,-1,-1,-1,-1],"loss_changes":[6.943587E1,6.507889E1,2.594806E1,2.7612732E1,5.401131E1,2.8596903E1,4.372139E0,1.7111542E0,1.6983986E1,5.149246E0,2.9198986E1,2.2969719E1,1.1901253E1,1.0148769E1,1.2134247E0,8.565159E-1,2.5437574E0,1.5601203E1,1.39507065E1,5.333763E0,1.886275E0,3.113057E1,8.544995E0,1.32538185E1,1.3660508E1,1.925554E1,5.932121E-1,1.5515466E0,4.9483514E0,2.980789E0,1.0215073E0,5.211582E-1,8.466458E-1,1.8076007E0,0E0,6.73005E0,4.6086397E0,8.855059E0,1.0173264E1,4.399639E0,1.1943398E0,2.9563713E-1,0E0,1.0804386E1,1.892371E1,1.1866379E0,1.3305694E1,4.1156883E0,5.598502E0,2.0363464E0,4.8571024E0,8.289158E0,1.2323105E1,0E0,6.0533905E-1,3.0888176E0,6.031761E-1,0E0,0E0,0E0,0E0,1.3073654E0,3.8203328E0,0E0,0E0,0E0,0E0,0E0,0E0,0E0,0E0,0E0,0E0,0E0,0E0,0E0,0E0,0E0,0E0,0E0,0E0,0E0,0E0,0E0,0E0,0E0,0E0,0E0,0E0,0E0,0E0,0E0,0E0,0E0,0E0,0E0,0E0,0E0,0E0,0E0,0E0,0E0,0E0,0E0,0E0,0E0,0E0,0E0,0E0,0E0,0E0,0E0,0E0],"parents":[2147483647,0,0,1,1,2,2,3,3,4,4,5,5,6,6,7,7,8,8,9,9,10,10,11,11,12,12,13,13,14,14,15,15,16,16,17,17,18,18,19,19,20,20,21,21,22,22,23,23,24,24,25,25,26,26,27,27,28,28,29,29,30,30,31,31,32,32,33,33,35,35,36,36,37,37,38,38,39,39,40,40,41,41,43,43,44,44,45,45,46,46,47,47,48,48,49,49,50,50,51,51,52,52,54,54,55,55,56,56,61,61,62,62],"right_children":[2,4,6,8,10,12,14,16,18,20,22,24,26,28,30,32,34,36,38,40,42,44,46,48,50,52,54,56,58,60,62,64,66,68,-1,70,72,74,76,78,80,82,-1,84,86,88,90,92,94,96,98,100,102,-1,104,106,108,-1,-1,-1,-1,110,112,-1,-1,-1,-1,-1,-1,-1,-1,-1,-1,-1,-1,-1,-1,-1,-1,-1,-1,-1,-1,-1,-1,-1,-1,-1,-1,-1,-1,-1,-1,-1,-1,-1,-1,-1,-1,-1,-1,-1,-1,-1,-1,-1,-1,-1,-1,-1,-1,-1,-1],"split_conditions":[1.0229725E-1,-3.1677082E-1,-3.916755E-1,-1.7145555E0,-4.9437958E-1,7.946326E-1,-1.4777184E0,-1.3078158E-1,-8.8097984E-1,2.2754164E0,1.6835281E0,-4.2074537E-1,-8.679584E-1,-4.331993E-1,1.1885415E-1,3.7875792E-1,1.126338E0,-1.0634538E0,-9.724069E-1,-4.9009013E-1,4.8578426E-1,1.376292E-1,6.75704E-1,-1.257026E-1,-1.1136402E0,-4.5734593E-1,-8.6308604E-1,-8.086212E-1,-5.961481E-1,-5.933581E-1,2.0982562E-1,-1.5163726E0,-4.4057268E-1,-1.317513E-1,-2.882109E-2,-9.5781064E-1,3.1974268E-1,-2.3339447E-1,-5.9146744E-1,-7.794248E-2,-3.2434335E-1,2.8092396E-1,-2.14482E-2,3.0858228E-1,1.0091032E0,1.4275684E0,1.1540666E0,-1.0321945E0,5.84577E-1,-4.7529837E-1,3.215073E-1,1.0000391E0,-1.2783412E0,3.839845E-4,-1.9481058E0,-2.5243527E-1,3.215073E-1,6.102438E-2,-2.3583012E-2,4.3054726E-2,-2.7901495E-2,-7.967543E-1,-1.2849899E-1,-3.1751607E-2,5.276179E-4,-2.0782216E-2,2.2022344E-2,-2.1182058E-2,3.3413332E-2,4.2442616E-2,-2.8253747E-2,-1.9527517E-2,4.8464835E-2,-1.48878265E-2,3.087779E-2,3.675705E-2,6.524027E-2,3.9623868E-2,-2.0075744E-2,-1.3439027E-2,-3.4306068E-2,1.1365917E-2,4.6999853E-2,6.281531E-3,-2.5140032E-2,2.967045E-2,-9.917901E-4,-1.3664794E-2,-3.5822053E-2,-2.1872949E-2,2.7593045E-2,2.826123E-3,5.18645E-2,1.7728353E-2,-2.8222252E-2,6.224695E-2,4.8913183E-3,-1.1725655E-3,-2.908958E-2,1.4285847E-2,-2.527529E-2,-2.3209436E-2,4.3834794E-2,2.1132104E-4,-3.3710968E-2,2.612707E-2,-3.001211E-2,2.2540792E-4,-3.4641545E-2,-1.7881084E-2,-3.2354217E-2,1.706885E-2,-3.0589042E-2],"split_indices":[8,20,22,17,4,8,19,22,3,16,21,0,20,21,8,19,22,3,5,1,0,21,0,2,10,1,3,0,14,9,10,18,22,1,0,0,18,18,0,6,5,14,0,20,9,6,2,14,8,11,8,8,7,0,5,22,8,0,0,0,0,23,17,0,0,0,0,0,0,0,0,0,0,0,0,0,0,0,0,0,0,0,0,0,0,0,0,0,0,0,0,0,0,0,0,0,0,0,0,0,0,0,0,0,0,0,0,0,0,0,0,0,0],"split_type":[0,0,0,0,0,0,0,0,0,0,0,0,0,0,0,0,0,0,0,0,0,0,0,0,0,0,0,0,0,0,0,0,0,0,0,0,0,0,0,0,0,0,0,0,0,0,0,0,0,0,0,0,0,0,0,0,0,0,0,0,0,0,0,0,0,0,0,0,0,0,0,0,0,0,0,0,0,0,0,0,0,0,0,0,0,0,0,0,0,0,0,0,0,0,0,0,0,0,0,0,0,0,0,0,0,0,0,0,0,0,0,0,0],"sum_hessian":[1.4974279E3,9.058761E2,5.915518E2,2.8016922E2,6.2570685E2,3.51352E2,2.4019981E2,2.8972103E1,2.5119711E2,1.3923863E2,4.8646823E2,1.4705067E2,2.0430132E2,3.211013E1,2.0808969E2,1.9684355E1,9.287749E0,6.277266E1,1.8842445E2,1.3430774E2,4.9308915E0,3.8383072E2,1.02637505E2,7.644245E1,7.060822E1,1.2746652E2,7.683479E1,2.492706E1,7.1830688E0,4.396621E0,2.0369307E2,1.7062126E1,2.6222286E0,5.7786713E0,3.509078E0,3.1821196E1,3.0951464E1,5.0016132E1,1.3840833E2,1.105482E1,1.2325292E2,3.5967138E0,1.3341775E0,1.0780857E2,2.7602216E2,4.7047493E1,5.5590015E1,4.6636482E1,2.9805973E1,8.091896E0,6.251633E1,9.5327545E1,3.213898E1,1.3211591E0,7.551363E1,7.8973155E0,1.7029745E1,5.4303994E0,1.7526696E0,1.3293111E0,3.0673099E0,1.8539677E2,1.8296284E1,1.5745777E1,1.3163486E0,1.3034654E0,1.3187634E0,1.3220693E0,4.456602E0,2.8721237E1,3.0999591E0,2.9184225E1,1.7672381E0,1.4108216E1,3.5907917E1,7.973009E1,5.8678238E1,4.015533E0,7.0392876E0,9.141099E0,1.14111824E2,1.7969441E0,1.7997696E0,5.4870567E1,5.2938004E1,2.1003E2,6.599214E1,9.184047E0,3.7863445E1,3.457973E1,2.1010284E1,4.886842E0,4.174964E1,2.1369162E1,8.4368105E0,5.859451E0,2.232445E0,2.7776533E1,3.47398E1,1.5145007E1,8.018253E1,8.812666E0,2.3326315E1,1.325901E0,7.418774E1,3.531485E0,4.3658304E0,1.3259604E0,1.5703784E1,2.1889097E1,1.6350769E2,5.242699E0,1.3053584E1],"tree_param":{"num_deleted":"0","num_feature":"24","num_nodes":"113","size_leaf_vector":"1"}},{"base_weights":[-2.584061E-3,-5.6871027E-1,1.5460474E-2,-2.4449143E-1,-3.648861E-2,-1.4274435E-1,8.664314E-2,-6.001454E-1,3.7988204E-1,-3.8069403E-1,3.6230115E-3,-7.8461416E-2,2.6397708E-1,-1.7412516E-4,-3.400107E-2,-2.4331905E-2,7.85918E-1,-1.00282095E-1,-5.6237954E-1,1.0062852E-1,-3.2815304E-1,-1.3296431E-1,3.1400347E-1,4.9419472E-1,-1.7030021E-2,5.3705335E-2,-2.2502216E-4,8.71595E-1,-2.4116348E-1,-6.09608E-1,8.074711E-2,-3.7451383E-2,4.7548005E-1,-4.7612837E-1,2.8900146E-1,-5.1562093E-2,-6.320224E-1,5.080669E-1,-6.055301E-1,3.4913778E-1,9.8731476E-1,-2.1583872E-1,5.152025E-1,5.4460287E-2,1.2999117E-2,-2.7631095E-2,6.676232E-3,4.888974E-3,-3.273457E-2,4.0712144E-2,-2.1440173E-2,-1.5960006E-2,1.24053275E-2,3.3572093E-2,-1.5180172E-2,3.5343505E-2,-2.8884817E-2,-4.596891E-3,4.176573E-2,-4.1284477E-3,3.7452128E-2,7.5753517E-3,-3.3707004E-2,-4.4300077E-3,3.265772E-2,-2.5559746E-4,-3.4125164E-2,-3.3254202E-2,1.9621467E-2,5.2664995E-2,-2.5916118E-2,7.6126686E-4,-3.1812053E-2,-1.8308265E-2,3.0834666E-2],"categories":[],"categories_nodes":[],"categories_segments":[],"categories_sizes":[],"default_left":[0,0,0,0,0,0,0,0,0,0,0,0,1,0,0,0,0,0,0,0,0,0,1,1,1,0,0,0,0,0,0,0,0,0,0,0,0,1,0,0,0,0,0,0,0,0,0,0,0,0,0,0,0,0,0,0,0,0,0,0,0,0,0,0,0,0,0,0,0,0,0,0,0,0,0],"id":4,"left_children":[1,3,5,7,-1,9,11,13,15,17,19,21,23,-1,-1,-1,25,27,29,31,33,35,37,39,41,-1,-1,43,45,47,49,51,53,55,57,59,61,63,65,67,69,71,73,-1,-1,-1,-1,-1,-1,-1,-1,-1,-1,-1,-1,-1,-1,-1,-1,-1,-1,-1,-1,-1,-1,-1,-1,-1,-1,-1,-1,-1,-1,-1,-1],"loss_changes":[1.55613365E1,2.2786818E0,1.6638697E1,4.029807E0,0E0,1.5970988E1,2.9851768E1,5.359478E-1,2.7839267E0,8.840931E0,9.201863E0,1.1344435E1,3.1802967E1,0E0,0E0,0E0,1.1506343E0,9.778274E0,3.2615242E0,1.1467054E1,6.044982E0,1.8844288E1,1.1858562E1,1.8981499E1,2.3632053E1,0E0,0E0,9.231925E-1,7.287822E0,3.2098007E0,3.3833451E0,1.3159764E1,9.306044E0,6.722931E0,2.8098369E0,1.0006263E1,2.2496414E0,4.7320166E0,5.3892803E-1,9.49543E0,6.592865E0,1.5798901E1,5.659689E0,0E0,0E0,0E0,0E0,0E0,0E0,0E0,0E0,0E0,0E0,0E0,0E0,0E0,0E0,0E0,0E0,0E0,0E0,0E0,0E0,0E0,0E0,0E0,0E0,0E0,0E0,0E0,0E0,0E0,0E0,0E0,0E0],"parents":[2147483647,0,0,1,1,2,2,3,3,5,5,6,6,7,7,8,8,9,9,10,10,11,11,12,12,16,16,17,17,18,18,19,19,20,20,21,21,22,22,23,23,24,24,27,27,28,28,29,29,30,30,31,31,32,32,33,33,34,34,35,35,36,36,37,37,38,38,39,39,40,40,41,41,42,42],"right_children":[2,4,6,8,-1,10,12,14,16,18,20,22,24,-1,-1,-1,26,28,30,32,34,36,38,40,42,-1,-1,44,46,48,50,52,54,56,58,60,62,64,66,68,70,72,74,-1,-1,-1,-1,-1,-1,-1,-1,-1,-1,-1,-1,-1,-1,-1,-1,-1,-1,-1,-1,-1,-1,-1,-1,-1,-1,-1,-1,-1,-1,-1,-1],"split_conditions":[-1.1843663E0,-2.91735E-1,-4.886905E-1,-7.0847476E-1,-3.648861E-2,-2.6898482E-1,-3.850624E-1,-7.1821445E-1,-5.4867387E-2,-4.3268007E-1,1.5738485E0,7.649872E-1,-3.6170027E-1,-1.7412516E-4,-3.400107E-2,-2.4331905E-2,1.4167897E-1,-2.6826364E-1,9.1828084E-1,1.0839705E0,1.6940312E0,2.2024782E-1,6.115764E-1,-4.6433735E-1,1.2793037E0,5.3705335E-2,-2.2502216E-4,-5.949875E-1,2.300565E-1,-3.3942387E-1,-4.2830187E-1,5.476543E-1,3.088757E0,-3.9067286E-1,2.1842132E0,5.5080533E-1,-1.2969147E0,-1.5616883E0,7.3592657E-1,-1.1943606E0,2.8642287E-2,-5.1843505E-3,-1.2246189E0,5.4460287E-2,1.2999117E-2,-2.7631095E-2,6.676232E-3,4.888974E-3,-3.273457E-2,4.0712144E-2,-2.1440173E-2,-1.5960006E-2,1.24053275E-2,3.3572093E-2,-1.5180172E-2,3.5343505E-2,-2.8884817E-2,-4.596891E-3,4.176573E-2,-4.1284477E-3,3.7452128E-2,7.5753517E-3,-3.3707004E-2,-4.4300077E-3,3.265772E-2,-2.5559746E-4,-3.4125164E-2,-3.3254202E-2,1.9621467E-2,5.2664995E-2,-2.5916118E-2,7.6126686E-4,-3.1812053E-2,-1.8308265E-2,3.0834666E-2],"split_indices":[3,23,8,12,0,0,22,10,5,1,11,7,0,0,0,0,2,5,5,0,4,21,17,20,16,0,0,8,5,7,22,13,0,4,6,16,18,15,2,7,6,18,13,0,0,0,0,0,0,0,0,0,0,0,0,0,0,0,0,0,0,0,0,0,0,0,0,0,0,0,0,0,0,0,0],"split_type":[0,0,0,0,0,0,0,0,0,0,0,0,0,0,0,0,0,0,0,0,0,0,0,0,0,0,0,0,0,0,0,0,0,0,0,0,0,0,0,0,0,0,0,0,0,0,0,0,0,0,0,0,0,0,0,0,0,0,0,0,0,0,0,0,0,0,0,0,0,0,0,0,0,0,0],"sum_hessian":[1.5214481E3,4.605359E1,1.4753945E3,1.6120634E1,2.9932955E1,4.5752692E2,1.0178676E3,1.0295145E1,5.825489E0,1.7363965E2,2.8388727E2,5.2739795E2,4.904697E2,1.3387164E0,8.956429E0,1.7954069E0,4.030082E0,6.888109E1,1.0475857E2,2.2020103E2,6.3686226E1,4.63668E2,6.372991E1,2.6918158E2,2.2128813E2,2.6902874E0,1.339795E0,8.064057E0,6.0817028E1,9.764039E1,7.118179E0,1.6158124E2,5.8619797E1,5.155369E1,1.2132533E1,3.9959302E2,6.407499E1,5.299337E1,1.0736539E1,2.0931668E2,5.98649E1,1.61541E2,5.9747124E1,5.371878E0,2.6921794E0,3.2951393E1,2.7865637E1,5.7799783E0,9.186041E1,2.672772E0,4.445407E0,8.127379E1,8.030745E1,4.6948956E1,1.1670844E1,3.6050298E0,4.794866E1,7.638198E0,4.494335E0,3.8555753E2,1.4035508E1,3.1360826E0,6.0938904E1,1.0441678E1,4.2551693E1,1.3411906E0,9.395349E0,7.9808507E0,2.0133583E2,5.763926E1,2.2256365E0,1.048671E2,5.6673897E1,5.90025E0,5.3846874E1],"tree_param":{"num_deleted":"0","num_feature":"24","num_nodes":"75","size_leaf_vector":"1"}},{"base_weights":[-1.2749211E-2,8.993144E-2,-5.356383E-1,4.7059792E-1,-1.6577028E-2,-6.004798E-1,5.8727765E-1,3.2392037E-1,1.2375038E0,-8.946954E-2,7.623268E-1,-6.378475E-1,1.1077249E-1,-2.4086267E-2,7.831018E-1,8.460569E-1,-3.0466355E-2,6.6806984E-1,1.3075868E0,-4.0263242E-1,5.046998E-2,8.72373E-1,-3.1686608E-2,-2.1375611E-1,-6.9504213E-1,4.404243E-1,-2.8725296E-2,1.7116527E-1,9.7195834E-1,1.3366175E0,5.1164734E-1,-2.4573241E-1,5.385776E-1,5.7663698E-2,-2.3554819E-2,6.6503175E-2,2.0278122E-2,6.617687E-2,-4.7146198E-1,2.374353E-1,-3.058054E-1,6.25451E-1,1.2572217E0,6.586006E-1,-4.0926123E-1,-7.0936185E-1,-2.9263857E-1,-2.7651998E-1,7.867369E-1,3.043074E-2,-2.1182364E-2,5.845763E-2,5.8152086E-1,6.932376E-2,-1.8030015E-4,5.3875446E-2,3.8067314E-3,-1.50626525E-2,5.7796568E-2,3.6184248E-2,-3.08759E-2,4.2184334E-2,-2.4849994E-2,-3.749715E-4,2.8268242E-2,5.1235285E-2,-1.8438512E-2,6.469097E-2,1.578144E-2,-5.909622E-4,6.5908276E-2,4.934101E-3,5.0634157E-2,-2.8297085E-2,4.7440976E-2,-3.5949353E-2,-2.4054347E-2,2.2138841E-2,-3.0978698E-2,2.4486214E-4,-2.1859996E-2,5.5856455E-2,5.688734E-3,4.566664E-3,4.7119286E-2],"categories":[],"categories_nodes":[],"categories_segments":[],"categories_sizes":[],"default_left":[0,0,1,0,0,1,0,0,0,0,0,1,0,0,0,0,0,0,0,0,0,0,0,0,1,0,0,0,0,0,0,0,0,0,0,0,0,0,0,0,0,0,0,0,1,0,0,0,0,0,0,0,0,0,0,0,0,0,0,0,0,0,0,0,0,0,0,0,0,0,0,0,0,0,0,0,0,0,0,0,0,0,0,0,0],"id":5,"left_children":[1,3,5,7,9,11,13,15,17,19,21,23,25,-1,27,29,31,33,35,37,39,41,-1,43,45,47,-1,49,51,53,55,57,59,-1,-1,-1,-1,-1,61,63,65,67,69,71,73,75,77,79,81,-1,-1,-1,83,-1,-1,-1,-1,-1,-1,-1,-1,-1,-1,-1,-1,-1,-1,-1,-1,-1,-1,-1,-1,-1,-1,-1,-1,-1,-1,-1,-1,-1,-1,-1,-1],"loss_changes":[8.067901E1,5.093641E1,1.8311142E1,3.04944E1,5.5849247E1,6.2811737E0,3.3017135E0,4.2938442E1,8.720627E-1,3.9430737E1,1.3485516E1,5.2400284E0,3.0804124E0,0E0,1.2421985E0,1.4703705E1,1.717314E1,4.322957E0,2.2905731E-1,3.3636395E1,4.1533787E1,6.6685944E0,0E0,5.01845E0,9.1786957E-1,2.4562945E0,0E0,1.3215792E0,2.0738602E-2,2.5042267E0,1.4062867E1,8.256279E0,8.684906E0,0E0,0E0,0E0,0E0,0E0,9.418316E0,3.2837776E1,1.836102E1,9.8995495E0,2.3103752E0,9.867301E-1,5.5083876E0,6.694031E-2,2.297267E0,1.683979E-1,1.2825415E0,0E0,0E0,0E0,8.060504E-1,0E0,0E0,0E0,0E0,0E0,0E0,0E0,0E0,0E0,0E0,0E0,0E0,0E0,0E0,0E0,0E0,0E0,0E0,0E0,0E0,0E0,0E0,0E0,0E0,0E0,0E0,0E0,0E0,0E0,0E0,0E0,0E0],"parents":[2147483647,0,0,1,1,2,2,3,3,4,4,5,5,6,6,7,7,8,8,9,9,10,10,11,11,12,12,14,14,15,15,16,16,17,17,18,18,19,19,20,20,21,21,23,23,24,24,25,25,27,27,28,28,29,29,30,30,31,31,32,32,38,38,39,39,40,40,41,41,42,42,43,43,44,44,45,45,46,46,47,47,48,48,52,52],"right_children":[2,4,6,8,10,12,14,16,18,20,22,24,26,-1,28,30,32,34,36,38,40,42,-1,44,46,48,-1,50,52,54,56,58,60,-1,-1,-1,-1,-1,62,64,66,68,70,72,74,76,78,80,82,-1,-1,-1,84,-1,-1,-1,-1,-1,-1,-1,-1,-1,-1,-1,-1,-1,-1,-1,-1,-1,-1,-1,-1,-1,-1,-1,-1,-1,-1,-1,-1,-1,-1,-1,-1],"split_conditions":[1.7945596E0,-7.3215306E-1,2.2808979E0,3.7560543E-1,1.4898202E0,1.8308374E0,3.435249E-2,-7.7581406E-1,-5.836717E-1,-6.4745003E-1,1.0159887E0,-2.0012348E0,3.1983335E0,-2.4086267E-2,1.8940276E0,-1.0409919E0,-5.2296957E-3,4.3540126E-1,2.239332E0,-1.2423722E0,3.7073976E-1,6.0659435E-2,-3.1686608E-2,-4.5341524E-1,3.5285994E-1,6.1562955E-1,-2.8725296E-2,2.6001182E0,1.6655967E0,-7.973246E-1,-5.510772E-1,6.330777E-2,-4.3205455E-2,5.7663698E-2,-2.3554819E-2,6.6503175E-2,2.0278122E-2,6.617687E-2,-1.1009358E0,1.692432E-1,-3.7115556E-1,-4.4734985E-1,-4.600043E-1,5.610852E-1,2.7564907E0,1.8191912E0,-9.6543305E-2,1.5150551E-3,3.3788633E0,3.043074E-2,-2.1182364E-2,5.845763E-2,5.398712E-1,6.932376E-2,-1.8030015E-4,5.3875446E-2,3.8067314E-3,-1.50626525E-2,5.7796568E-2,3.6184248E-2,-3.08759E-2,4.2184334E-2,-2.4849994E-2,-3.749715E-4,2.8268242E-2,5.1235285E-2,-1.8438512E-2,6.469097E-2,1.578144E-2,-5.909622E-4,6.5908276E-2,4.934101E-3,5.0634157E-2,-2.8297085E-2,4.7440976E-2,-3.5949353E-2,-2.4054347E-2,2.2138841E-2,-3.0978698E-2,2.4486214E-4,-2.1859996E-2,5.5856455E-2,5.688734E-3,4.566664E-3,4.7119286E-2],"split_indices":[16,7,18,1,18,4,3,1,4,3,1,9,0,0,11,7,3,0,5,3,7,1,0,22,8,1,0,9,2,1,4,20,12,0,0,0,0,0,12,2,0,0,22,19,3,17,23,1,12,0,0,0,1,0,0,0,0,0,0,0,0,0,0,0,0,0,0,0,0,0,0,0,0,0,0,0,0,0,0,0,0,0,0,0,0],"split_type":[0,0,0,0,0,0,0,0,0,0,0,0,0,0,0,0,0,0,0,0,0,0,0,0,0,0,0,0,0,0,0,0,0,0,0,0,0,0,0,0,0,0,0,0,0,0,0,0,0,0,0,0,0,0,0,0,0,0,0,0,0,0,0,0,0,0,0,0,0,0,0,0,0,0,0,0,0,0,0,0,0,0,0,0,0],"sum_hessian":[1.5007687E3,1.2551255E3,2.456432E2,2.7365405E2,9.814714E2,2.32673E2,1.2970198E1,2.3091238E2,4.2741665E1,8.982913E2,8.318008E1,2.2115709E2,1.1515916E1,1.7820431E0,1.1188155E1,9.279916E1,1.3811324E2,5.8381786E0,3.6903484E1,2.7685522E2,6.214361E2,7.745009E1,5.729988E0,2.6844643E1,1.9431245E2,8.01677E0,3.4991453E0,3.088161E0,8.099994E0,3.6402184E1,5.6396973E1,1.0061813E2,3.7495094E1,4.085613E0,1.7525659E0,3.554328E1,1.3602042E0,9.917061E0,2.6693817E2,4.0777728E2,2.1365881E2,4.8778564E1,2.867152E1,4.4810753E0,2.2363567E1,1.8689874E2,7.413699E0,2.676777E0,5.3399935E0,1.7660967E0,1.3220643E0,4.056667E0,4.0433273E0,3.5063282E1,1.3389018E0,2.3886776E1,3.2510197E1,9.753962E1,3.0785208E0,3.2642582E1,4.852514E0,4.4744873E0,2.6246368E2,2.3398674E2,1.7379054E2,8.964101E0,2.046947E2,1.4443695E1,3.433487E1,1.3507469E0,2.7320772E1,2.2313263E0,2.249749E0,2.057332E1,1.7902462E0,1.7727432E2,9.624421E0,2.172502E0,5.241197E0,1.3252449E0,1.3515321E0,3.1389182E0,2.2010753E0,2.2457988E0,1.7975283E0],"tree_param":{"num_deleted":"0","num_feature":"24","num_nodes":"85","size_leaf_vector":"1"}},{"base_weights":[-2.5389048E-3,1.7328994E-1,-2.710501E-1,5.500516E-1,-1.8555593E-2,-1.0660491E-1,-4.973959E-1,-4.6899366E-1,6.4032185E-1,-5.4798114E-1,1.2918602E-1,1.7342557E-1,-3.1332502E-1,-9.52936E-2,-5.611793E-1,-3.4530748E-2,1.3372323E-1,8.9390755E-1,4.1486585E-1,-6.5174395E-1,-1.8554942E-1,2.4186459E-1,-3.0584908E-1,5.364377E-1,-9.2638634E-2,-1.1969311E-1,-6.6204715E-1,-4.093592E-1,8.3829945E-1,-4.383698E-1,-6.421799E-1,5.814312E-1,-2.6493743E-2,1.0943253E0,4.9549803E-1,-1.823948E-1,5.141271E-1,-8.4454276E-2,-6.877318E-1,4.175609E-2,-3.1225452E-1,-2.030468E-1,4.0362087E-1,-2.6090084E-2,-6.4497596E-1,9.755344E-1,1.16610155E-1,5.996188E-2,-2.0494626E-1,-2.3127331E-1,6.375869E-2,-6.750537E-1,6.630362E-4,2.2420447E-2,-6.328302E-1,6.025799E-2,-2.3310479E-2,-1.7310092E-1,-5.9000313E-1,-5.2610014E-2,-6.561668E-1,5.155989E-3,4.6088025E-2,2.6369063E-2,6.2316477E-2,-2.5414485E-3,4.3371163E-2,2.3449821E-2,-3.1411353E-2,3.7150208E-2,7.6573133E-3,4.1174076E-2,-2.1975202E-2,-3.4895938E-2,1.6444157E-3,2.475353E-2,-2.2607777E-2,6.517501E-3,-2.639528E-2,2.6941175E-2,-2.040006E-3,-3.056193E-2,2.0279447E-2,2.2943432E-2,-3.4475308E-2,-2.5650034E-2,5.5562913E-2,3.5720587E-2,-1.2407322E-2,-1.4364013E-2,3.9477054E-2,-2.45101E-2,-1.2422474E-4,-1.11065945E-2,-3.5099965E-2,3.4293216E-2,-3.0249063E-2,2.249671E-4,-3.421746E-2,-3.3809755E-2,8.779619E-3,-3.246908E-2,-1.1065838E-2,-2.294835E-2,2.2402028E-2,-1.5929883E-2,-3.42185E-2],"categories":[],"categories_nodes":[],"categories_segments":[],"categories_sizes":[],"default_left":[1,1,0,1,0,0,0,0,0,0,0,0,1,0,0,0,0,1,0,0,0,0,0,0,0,0,0,0,0,0,0,0,0,1,0,0,1,0,0,0,0,0,0,0,0,0,0,0,0,0,0,0,0,0,0,0,0,0,0,0,0,0,0,0,0,0,0,0,0,0,0,0,0,0,0,0,0,0,0,0,0,0,0,0,0,0,0,0,0,0,0,0,0,0,0,0,0,0,0,0,0,0,0,0,0,0,0],"id":6,"left_children":[1,3,5,7,9,11,13,15,17,19,21,23,25,27,29,-1,31,33,35,37,39,41,43,45,47,49,51,53,55,57,59,61,-1,63,65,67,69,71,73,-1,75,77,79,81,83,85,87,-1,89,91,-1,93,-1,95,97,-1,-1,99,101,103,105,-1,-1,-1,-1,-1,-1,-1,-1,-1,-1,-1,-1,-1,-1,-1,-1,-1,-1,-1,-1,-1,-1,-1,-1,-1,-1,-1,-1,-1,-1,-1,-1,-1,-1,-1,-1,-1,-1,-1,-1,-1,-1,-1,-1,-1,-1],"loss_changes":[7.041114E1,6.51518E1,2.1913143E1,2.827494E1,4.6855625E1,1.9914873E1,6.3086815E0,3.4749775E0,1.5625015E1,4.7938766E0,2.303667E1,1.418487E1,1.3272602E1,1.0654213E1,1.8462448E0,0E0,2.5797071E0,9.902794E0,8.984837E0,2.0080261E0,4.2033463E0,2.6899185E1,9.16812E0,1.1323965E1,1.2622475E1,2.0272884E1,6.2709045E-1,2.6180634E0,4.955281E0,3.4439774E0,1.0105782E0,7.257843E-1,0E0,6.7715073E0,9.311253E0,6.715809E0,1.0532768E1,2.6755633E0,7.205353E-1,0E0,3.3690734E0,1.0901697E1,1.6462414E1,1.3911291E1,2.4654522E0,6.6695404E0,7.3412385E0,0E0,6.722886E0,7.0897813E0,0E0,6.8694496E-1,0E0,4.647834E0,5.880804E-1,0E0,0E0,5.9920225E0,1.0752239E0,1.0243219E0,9.597664E-1,0E0,0E0,0E0,0E0,0E0,0E0,0E0,0E0,0E0,0E0,0E0,0E0,0E0,0E0,0E0,0E0,0E0,0E0,0E0,0E0,0E0,0E0,0E0,0E0,0E0,0E0,0E0,0E0,0E0,0E0,0E0,0E0,0E0,0E0,0E0,0E0,0E0,0E0,0E0,0E0,0E0,0E0,0E0,0E0,0E0,0E0],"parents":[2147483647,0,0,1,1,2,2,3,3,4,4,5,5,6,6,7,7,8,8,9,9,10,10,11,11,12,12,13,13,14,14,16,16,17,17,18,18,19,19,20,20,21,21,22,22,23,23,24,24,25,25,26,26,27,27,28,28,29,29,30,30,31,31,33,33,34,34,35,35,36,36,37,37,38,38,40,40,41,41,42,42,43,43,44,44,45,45,46,46,48,48,49,49,51,51,53,53,54,54,57,57,58,58,59,59,60,60],"right_children":[2,4,6,8,10,12,14,16,18,20,22,24,26,28,30,-1,32,34,36,38,40,42,44,46,48,50,52,54,56,58,60,62,-1,64,66,68,70,72,74,-1,76,78,80,82,84,86,88,-1,90,92,-1,94,-1,96,98,-1,-1,100,102,104,106,-1,-1,-1,-1,-1,-1,-1,-1,-1,-1,-1,-1,-1,-1,-1,-1,-1,-1,-1,-1,-1,-1,-1,-1,-1,-1,-1,-1,-1,-1,-1,-1,-1,-1,-1,-1,-1,-1,-1,-1,-1,-1,-1,-1,-1,-1],"split_conditions":[1.0229725E-1,-2.4658537E-1,-3.952307E-1,-1.9180715E0,-4.9437958E-1,8.274025E-1,-1.4777184E0,-1.3078158E-1,-3.7286407E-1,-2.011467E-1,1.6835281E0,-5.3182983E-1,-8.679584E-1,-4.8003426E-1,3.703853E-1,-3.4530748E-2,1.126338E0,-2.339475E-1,-6.817129E-1,-5.954575E-1,-4.9225685E-1,1.376292E-1,1.8308374E0,-4.5473546E-1,-1.2911782E0,-2.412306E-2,-4.8541602E-1,-8.7905014E-1,-5.961481E-1,-1.9584872E-1,-1.4637326E0,3.698832E-2,-2.6493743E-2,-1.0121198E0,-7.512106E-1,-3.6853966E-1,-3.1471816E-1,-7.794248E-2,-2.2348622E-2,4.175609E-2,-3.161249E-1,-1.6084026E-1,1.0434417E0,6.567892E-1,4.5662513E-1,-9.038224E-1,-7.603242E-1,5.996188E-2,1.057739E0,-3.9067286E-1,6.375869E-2,8.5879517E-1,6.630362E-4,-6.3538796E-1,3.215073E-1,6.025799E-2,-2.3310479E-2,-5.269108E-1,1.105461E0,-6.1937904E-1,-8.500043E-1,5.155989E-3,4.6088025E-2,2.6369063E-2,6.2316477E-2,-2.5414485E-3,4.3371163E-2,2.3449821E-2,-3.1411353E-2,3.7150208E-2,7.6573133E-3,4.1174076E-2,-2.1975202E-2,-3.4895938E-2,1.6444157E-3,2.475353E-2,-2.2607777E-2,6.517501E-3,-2.639528E-2,2.6941175E-2,-2.040006E-3,-3.056193E-2,2.0279447E-2,2.2943432E-2,-3.4475308E-2,-2.5650034E-2,5.5562913E-2,3.5720587E-2,-1.2407322E-2,-1.4364013E-2,3.9477054E-2,-2.45101E-2,-1.2422474E-4,-1.11065945E-2,-3.5099965E-2,3.4293216E-2,-3.0249063E-2,2.249671E-4,-3.421746E-2,-3.3809755E-2,8.779619E-3,-3.246908E-2,-1.1065838E-2,-2.294835E-2,2.2402028E-2,-1.5929883E-2,-3.42185E-2],"split_indices":[8,20,22,17,4,8,19,22,22,0,21,0,20,21,8,0,22,14,13,1,10,21,4,14,10,1,21,0,14,22,2,11,0,5,0,21,8,6,8,0,3,5,9,0,16,10,4,0,14,4,0,8,0,11,8,0,0,16,12,11,23,0,0,0,0,0,0,0,0,0,0,0,0,0,0,0,0,0,0,0,0,0,0,0,0,0,0,0,0,0,0,0,0,0,0,0,0,0,0,0,0,0,0,0,0,0,0],"split_type":[0,0,0,0,0,0,0,0,0,0,0,0,0,0,0,0,0,0,0,0,0,0,0,0,0,0,0,0,0,0,0,0,0,0,0,0,0,0,0,0,0,0,0,0,0,0,0,0,0,0,0,0,0,0,0,0,0,0,0,0,0,0,0,0,0,0,0,0,0,0,0,0,0,0,0,0,0,0,0,0,0,0,0,0,0,0,0,0,0,0,0,0,0,0,0,0,0,0,0,0,0,0,0,0,0,0,0],"sum_hessian":[1.4893871E3,9.002392E2,5.891478E2,3.0310672E2,5.971325E2,3.420859E2,2.4706194E2,2.4323828E1,2.7878287E2,1.2968892E2,4.6744357E2,1.4535027E2,1.9673564E2,3.4166153E1,2.1289578E2,1.76778E1,6.64603E0,1.2981088E2,1.48972E2,1.0020294E2,2.9485977E1,3.7163126E2,9.5812294E1,6.104526E1,8.430501E1,1.2736051E2,6.937514E1,2.5985888E1,8.180266E0,8.715989E1,1.2573589E2,4.0425043E0,2.6035256E0,8.5203156E1,4.460773E1,2.111062E1,1.27861374E2,6.1771398E0,9.40258E1,2.6387222E0,2.6847254E1,9.902028E1,2.72611E2,5.3091763E1,4.2720535E1,2.9190908E1,3.1854355E1,5.968709E0,7.8336296E1,1.18699524E2,8.660987E0,6.806457E1,1.3105632E0,9.1692295E0,1.6816658E1,6.444165E0,1.736101E0,3.248023E1,5.467966E1,3.0241575E0,1.2271173E2,2.2222588E0,1.8202454E0,1.8959112E1,6.624405E1,1.841742E1,2.6190311E1,8.556717E0,1.2553903E1,7.760086E1,5.0260513E1,1.3656216E0,4.811518E0,9.27462E1,1.2796015E0,3.59026E0,2.3256994E1,4.916345E1,4.985683E1,2.0885907E2,6.3751926E1,2.236273E1,3.0729033E1,1.2957579E0,4.1424778E1,2.206932E0,2.6983976E1,1.1707792E1,2.0146563E1,7.300344E1,5.332857E0,5.514608E1,6.3553444E1,4.341027E0,6.3723545E1,4.4113154E0,4.7579136E0,1.3259745E0,1.5490684E1,1.2911831E1,1.9568398E1,4.6439114E1,8.240545E0,1.7152336E0,1.308924E0,1.0409936E1,1.12301796E2],"tree_param":{"num_deleted":"0","num_feature":"24","num_nodes":"107","size_leaf_vector":"1"}},{"base_weights":[-3.0730043E-3,1.6090973E-1,-7.717688E-2,5.999677E-1,8.0187805E-2,-1.9043133E-1,3.509835E-2,1.2478081E-1,7.473552E-1,-5.7753257E-2,4.6032885E-1,-4.207735E-1,-8.824554E-2,9.029953E-2,-5.8933467E-1,-4.2184836E-1,7.927846E-1,1.0770236E0,4.546712E-1,2.099261E-1,-2.2655863E-1,2.6314428E-1,7.095603E-1,5.143206E-1,-4.541161E-1,5.714431E-1,-1.2476406E-1,-1.7288461E-1,2.6901782E-1,-6.697627E-1,-6.114254E-2,2.0835085E-2,-5.827249E-1,5.9209943E-2,-2.3995345E-2,1.1716627E0,3.5893705E-3,8.0563265E-1,1.0299888E-1,3.5097498E-1,-5.5253476E-1,4.1354498E-1,-3.0355552E-1,3.4262767E-1,-4.8166317E-1,1.0191514E0,7.01513E-2,5.1262904E-2,-1.1452794E-2,-5.08744E-1,9.998287E-2,8.5419995E-1,-4.062103E-1,5.6151237E-2,-1.3935597E-1,-3.1762826E-1,3.4781036E-1,7.359148E-2,5.4737115E-1,-3.678832E-1,-3.589597E-2,3.414979E-2,-2.9224074E-2,-3.369547E-2,-8.123919E-4,2.6027238E-2,6.1577648E-2,-2.1517241E-2,4.755052E-2,-1.2805632E-2,5.4858666E-2,-1.9737434E-2,2.6053945E-2,-3.440406E-2,-1.3863193E-2,-4.681771E-3,4.1924685E-2,2.1133548E-2,-1.6985497E-2,-1.7962853E-3,2.6868282E-2,-3.0225748E-2,-7.60819E-4,5.4555595E-2,-6.0404986E-3,-1.8688384E-2,3.0299816E-2,6.3046776E-3,-2.7920851E-2,4.3041196E-2,-8.936931E-3,-2.1026459E-2,5.01781E-2,8.7404085E-5,-2.7678851E-2,2.3096919E-3,-1.1975066E-2,-8.470924E-3,-2.6993874E-2,3.0003816E-2,-2.8700927E-2,4.907727E-2,-3.6847838E-3,3.360097E-2,-7.0872824E-3,-3.0964706E-2,2.0867739E-2],"categories":[],"categories_nodes":[],"categories_segments":[],"categories_sizes":[],"default_left":[1,0,1,0,1,0,0,0,0,1,0,0,0,0,0,0,0,0,0,1,1,0,0,0,1,0,0,0,0,0,0,0,0,0,0,0,0,0,1,0,0,1,0,0,0,0,0,0,0,0,0,0,0,0,0,0,0,0,0,0,0,0,0,0,0,0,0,0,0,0,0,0,0,0,0,0,0,0,0,0,0,0,0,0,0,0,0,0,0,0,0,0,0,0,0,0,0,0,0,0,0,0,0,0,0,0,0],"id":7,"left_children":[1,3,5,7,9,11,13,15,17,19,21,23,25,27,29,31,33,35,37,39,41,43,45,47,49,51,53,55,57,59,61,-1,63,-1,-1,65,-1,67,69,71,73,75,77,79,81,83,85,-1,-1,87,89,91,93,-1,95,97,99,101,103,105,-1,-1,-1,-1,-1,-1,-1,-1,-1,-1,-1,-1,-1,-1,-1,-1,-1,-1,-1,-1,-1,-1,-1,-1,-1,-1,-1,-1,-1,-1,-1,-1,-1,-1,-1,-1,-1,-1,-1,-1,-1,-1,-1,-1,-1,-1,-1],"loss_changes":[1.8659847E1,1.689113E1,1.3454752E1,5.0944366E0,2.1257132E1,1.2359203E1,1.8388874E1,7.175867E0,4.9460144E0,1.3511345E1,5.116537E0,5.2712746E0,8.890525E0,2.3075314E1,1.8001099E0,1.7209249E0,4.94164E0,2.3668556E0,3.813755E0,1.2642573E1,9.15531E0,3.8256927E0,9.247366E0,2.5258677E0,4.789364E0,5.7047734E0,6.4872975E0,1.5079772E1,1.5842913E1,2.811985E-1,3.0580747E0,0E0,4.8544526E-1,0E0,0E0,2.745819E-1,0E0,3.2222834E0,6.320575E0,1.2674431E1,4.9796295E-1,4.409549E0,4.452675E0,4.1812725E0,3.563E-1,2.7276611E0,4.1350517E0,0E0,0E0,4.5691147E0,3.310264E0,3.3457098E0,3.0311066E-1,0E0,6.4138656E0,5.0450554E0,1.0502053E1,2.3167557E1,1.0427242E1,1.68215E0,0E0,0E0,0E0,0E0,0E0,0E0,0E0,0E0,0E0,0E0,0E0,0E0,0E0,0E0,0E0,0E0,0E0,0E0,0E0,0E0,0E0,0E0,0E0,0E0,0E0,0E0,0E0,0E0,0E0,0E0,0E0,0E0,0E0,0E0,0E0,0E0,0E0,0E0,0E0,0E0,0E0,0E0,0E0,0E0,0E0,0E0,0E0],"parents":[2147483647,0,0,1,1,2,2,3,3,4,4,5,5,6,6,7,7,8,8,9,9,10,10,11,11,12,12,13,13,14,14,15,15,16,16,17,17,18,18,19,19,20,20,21,21,22,22,23,23,24,24,25,25,26,26,27,27,28,28,29,29,30,30,32,32,35,35,37,37,38,38,39,39,40,40,41,41,42,42,43,43,44,44,45,45,46,46,49,49,50,50,51,51,52,52,54,54,55,55,56,56,57,57,58,58,59,59],"right_children":[2,4,6,8,10,12,14,16,18,20,22,24,26,28,30,32,34,36,38,40,42,44,46,48,50,52,54,56,58,60,62,-1,64,-1,-1,66,-1,68,70,72,74,76,78,80,82,84,86,-1,-1,88,90,92,94,-1,96,98,100,102,104,106,-1,-1,-1,-1,-1,-1,-1,-1,-1,-1,-1,-1,-1,-1,-1,-1,-1,-1,-1,-1,-1,-1,-1,-1,-1,-1,-1,-1,-1,-1,-1,-1,-1,-1,-1,-1,-1,-1,-1,-1,-1,-1,-1,-1,-1,-1,-1],"split_conditions":[-4.9931315E-1,-4.6110046E-1,-2.9918534E-1,-1.5801679E0,6.954945E-1,1.3919564E-1,4.4812825E-1,-9.8497087E-1,-3.5908872E-1,-3.4907416E-1,8.1613994E-1,-1.2675544E0,-5.085273E-1,-7.303242E-1,7.60161E-1,-1.226619E0,-1.5461136E0,2.2503164E-1,-8.924813E-1,-8.97274E-2,-2.3803926E0,2.47426E0,1.1423527E0,-5.7032496E-1,6.3651687E-1,2.4456406E-1,-7.228331E-1,-5.1703036E-1,1.993521E-1,-7.679789E-1,2.0543061E-1,2.0835085E-2,-5.9466654E-1,5.9209943E-2,-2.3995345E-2,-9.094914E-1,3.5893705E-3,-1.5094528E0,3.608322E-1,-1.278516E0,-3.7286407E-1,-8.1775594E-1,-1.213524E0,-8.7675285E-1,1.692432E-1,1.4777946E0,-7.237346E-2,5.1262904E-2,-1.1452794E-2,-4.9524903E-1,7.7721494E-1,-8.352556E-1,4.30794E-1,5.6151237E-2,-3.383004E-1,-3.1094936E-1,1.0434417E0,-1.1445222E0,1.1330624E-1,3.8234067E-1,-3.589597E-2,3.414979E-2,-2.9224074E-2,-3.369547E-2,-8.123919E-4,2.6027238E-2,6.1577648E-2,-2.1517241E-2,4.755052E-2,-1.2805632E-2,5.4858666E-2,-1.9737434E-2,2.6053945E-2,-3.440406E-2,-1.3863193E-2,-4.681771E-3,4.1924685E-2,2.1133548E-2,-1.6985497E-2,-1.7962853E-3,2.6868282E-2,-3.0225748E-2,-7.60819E-4,5.4555595E-2,-6.0404986E-3,-1.8688384E-2,3.0299816E-2,6.3046776E-3,-2.7920851E-2,4.3041196E-2,-8.936931E-3,-2.1026459E-2,5.01781E-2,8.7404085E-5,-2.7678851E-2,2.3096919E-3,-1.1975066E-2,-8.470924E-3,-2.6993874E-2,3.0003816E-2,-2.8700927E-2,4.907727E-2,-3.6847838E-3,3.360097E-2,-7.0872824E-3,-3.0964706E-2,2.0867739E-2],"split_indices":[5,4,8,19,16,9,3,20,12,3,6,0,15,1,4,10,17,23,17,9,5,16,14,7,16,23,12,12,5,4,8,0,5,0,0,12,0,19,20,15,22,6,23,13,2,11,19,0,0,22,16,4,6,0,1,4,9,4,1,0,0,0,0,0,0,0,0,0,0,0,0,0,0,0,0,0,0,0,0,0,0,0,0,0,0,0,0,0,0,0,0,0,0,0,0,0,0,0,0,0,0,0,0,0,0,0,0],"split_type":[0,0,0,0,0,0,0,0,0,0,0,0,0,0,0,0,0,0,0,0,0,0,0,0,0,0,0,0,0,0,0,0,0,0,0,0,0,0,0,0,0,0,0,0,0,0,0,0,0,0,0,0,0,0,0,0,0,0,0,0,0,0,0,0,0,0,0,0,0,0,0,0,0,0,0,0,0,0,0,0,0,0,0,0,0,0,0,0,0,0,0,0,0,0,0,0,0,0,0,0,0,0,0,0,0,0,0],"sum_hessian":[1.5335461E3,4.769479E2,1.0565983E3,7.307113E1,4.0387677E2,5.256588E2,5.3093945E2,1.7735933E1,5.5335194E1,2.969655E2,1.0691125E2,1.6057677E2,3.6508203E2,4.8860147E2,4.2338E1,9.956774E0,7.7791595E0,2.476312E1,3.0572071E1,1.1475374E2,1.8221179E2,6.083567E1,4.6075573E1,5.031891E0,1.5554488E2,1.8381504E1,3.4670053E2,1.9761794E2,2.9098352E2,3.6510506E1,5.8274965E0,1.3467592E0,8.610015E0,6.0026007E0,1.7765586E0,2.2481056E1,2.2820642E0,1.4655417E1,1.5916655E1,9.7294716E1,1.7459026E1,1.9095224E1,1.6311656E2,5.5457417E1,5.3782563E0,3.0644241E1,1.5431332E1,2.7574499E0,2.274441E0,1.416606E2,1.3884281E1,1.4355795E1,4.0257077E0,3.1294742E0,3.4357104E2,1.54938E2,4.2679935E1,1.7170045E2,1.1928307E2,6.2115474E0,3.0298958E1,2.280198E0,3.5472987E0,7.252886E0,1.3571289E0,2.709997E0,1.9771059E1,1.3360826E0,1.3319335E1,1.2238355E1,3.6783004E0,1.7826029E1,7.946868E1,1.0693686E1,6.7653403E0,9.060766E0,1.0034458E1,7.2284913E0,1.5588808E2,1.9115017E1,3.63424E1,4.0227523E0,1.3555039E0,2.8864985E1,1.7792583E0,8.60501E0,6.8263216E0,1.0168271E1,1.3149232E2,3.1626241E0,1.0721658E1,1.315255E0,1.3040541E1,1.3305248E0,2.695183E0,1.2062155E2,2.229495E2,9.400909E1,6.0928913E1,3.3783768E1,8.896166E0,2.3174812E1,1.4852565E2,1.0103293E2,1.8250147E1,4.8651834E0,1.3463639E0],"tree_param":{"num_deleted":"0","num_feature":"24","num_nodes":"107","size_leaf_vector":"1"}},{"base_weights":[6.99877E-3,1.0390363E-1,-5.297287E-1,5.0943726E-1,1.3278231E-3,-6.206991E-1,2.695747E-1,3.7237355E-1,1.1846564E0,-3.0685553E-1,1.8025196E-1,-2.9557E-2,-6.876865E-1,7.687116E-1,8.469465E-3,8.650388E-1,-2.175793E-2,6.499836E-2,9.052134E-1,-4.0383703E-1,6.88576E-1,7.517763E-1,-1.7778374E-2,5.416696E-2,-2.749605E-1,-7.128849E-1,-4.2508727E-1,2.5915405E-1,5.5545982E-2,2.7543044E-1,-3.0391783E-2,1.2175889E0,5.508601E-1,6.287784E-2,-1.3287719E-1,-6.9144863E-4,9.920095E-1,3.8821113E-1,-4.6533006E-1,3.284441E-1,1.0061867E0,-5.64485E-1,8.849326E-1,-8.7574266E-2,9.8266363E-1,-4.0707973E-1,4.077135E-2,-4.8920405E-3,-3.5935283E-2,3.339583E-1,-6.183125E-1,3.3354636E-2,-2.1459071E-2,-3.7075296E-1,6.0742766E-1,6.3933276E-2,-2.1398308E-2,5.292703E-2,-3.3839156E-3,4.970095E-2,-1.3513679E-2,2.9925345E-2,5.5798527E-2,4.7690503E-2,-2.0418784E-2,-2.6840735E-2,-6.23779E-3,-1.7805661E-3,5.0370645E-2,5.6919336E-2,4.2561013E-3,-3.40582E-2,8.0435706E-4,-2.8190934E-3,5.2787203E-2,1.433266E-2,-1.2670745E-2,-2.3929875E-2,5.4328468E-2,-7.58505E-3,-3.226908E-2,-2.28791E-2,4.9819585E-2,9.888391E-4,-3.3954475E-2,9.895137E-4,-2.5945792E-2,1.1183216E-2,5.2624073E-2],"categories":[],"categories_nodes":[],"categories_segments":[],"categories_sizes":[],"default_left":[0,0,1,0,0,1,0,0,0,0,0,0,0,0,0,0,0,0,0,0,0,0,0,0,1,0,0,0,0,0,0,0,0,0,0,0,0,0,0,0,0,0,0,0,0,0,0,0,0,0,0,0,0,0,0,0,0,0,0,0,0,0,0,0,0,0,0,0,0,0,0,0,0,0,0,0,0,0,0,0,0,0,0,0,0,0,0,0,0],"id":8,"left_children":[1,3,5,7,9,11,13,15,17,19,21,23,25,27,29,31,33,-1,35,37,39,41,43,-1,45,47,49,51,-1,53,-1,55,57,-1,59,-1,61,63,65,67,69,71,73,75,77,79,-1,-1,-1,81,83,-1,-1,85,87,-1,-1,-1,-1,-1,-1,-1,-1,-1,-1,-1,-1,-1,-1,-1,-1,-1,-1,-1,-1,-1,-1,-1,-1,-1,-1,-1,-1,-1,-1,-1,-1,-1,-1],"loss_changes":[7.813559E1,5.2931183E1,1.687336E1,2.3332512E1,5.6111244E1,8.160011E0,3.1440158E0,4.176487E1,2.052002E-1,3.636235E1,7.2878456E1,6.325787E0,9.2448425E-1,1.1579118E0,2.945093E0,9.91568E0,1.7284954E1,0E0,1.2757292E0,1.6800343E1,3.5073738E0,2.9540398E1,3.3540707E1,0E0,3.0520208E0,5.303726E-1,2.951998E0,1.5879279E0,0E0,2.8999977E0,0E0,4.9907074E0,1.6515207E1,0E0,1.7562826E1,0E0,3.788185E-2,1.1711283E1,7.653084E0,4.289528E0,2.0150375E0,1.0834689E0,2.4316078E1,2.7925026E1,5.2765255E0,9.675746E-1,0E0,0E0,0E0,2.7880225E0,6.0568476E-1,0E0,0E0,2.9106498E-1,1.2360687E0,0E0,0E0,0E0,0E0,0E0,0E0,0E0,0E0,0E0,0E0,0E0,0E0,0E0,0E0,0E0,0E0,0E0,0E0,0E0,0E0,0E0,0E0,0E0,0E0,0E0,0E0,0E0,0E0,0E0,0E0,0E0,0E0,0E0,0E0],"parents":[2147483647,0,0,1,1,2,2,3,3,4,4,5,5,6,6,7,7,8,8,9,9,10,10,11,11,12,12,13,13,14,14,15,15,16,16,18,18,19,19,20,20,21,21,22,22,24,24,25,25,26,26,27,27,29,29,31,31,32,32,34,34,36,36,37,37,38,38,39,39,40,40,41,41,42,42,43,43,44,44,45,45,49,49,50,50,53,53,54,54],"right_children":[2,4,6,8,10,12,14,16,18,20,22,24,26,28,30,32,34,-1,36,38,40,42,44,-1,46,48,50,52,-1,54,-1,56,58,-1,60,-1,62,64,66,68,70,72,74,76,78,80,-1,-1,-1,82,84,-1,-1,86,88,-1,-1,-1,-1,-1,-1,-1,-1,-1,-1,-1,-1,-1,-1,-1,-1,-1,-1,-1,-1,-1,-1,-1,-1,-1,-1,-1,-1,-1,-1,-1,-1,-1,-1],"split_conditions":[1.8825935E0,-7.6693547E-1,1.7915286E0,3.6682683E-1,-2.4658537E-1,-2.2416039E0,4.7992864E-1,-6.4745003E-1,-2.1512066E-1,1.1694607E0,-5.510772E-1,-4.6081096E-1,1.1173451E0,2.2754164E0,1.503589E0,-1.007123E0,-1.4150703E0,6.499836E-2,-1.3414155E-1,-1.1843663E0,1.4449506E0,-4.546242E-1,1.8891009E0,5.416696E-2,2.7564907E0,6.1425614E-1,6.3138014E-1,3.9336473E-1,5.5545982E-2,1.8080338E0,-3.0391783E-2,-7.8813124E-1,-5.130615E-1,6.287784E-2,-5.043104E-1,-6.9144863E-4,-2.2102939E-1,-5.741462E-1,-3.7958643E-1,-2.5178325E-1,-3.760616E-1,-1.8812005E-1,-4.428541E-1,3.9455928E-2,-4.795226E-1,-3.356862E-1,4.077135E-2,-4.8920405E-3,-3.5935283E-2,5.9203154E-1,8.212751E-1,3.3354636E-2,-2.1459071E-2,2.3309896E0,2.4856567E0,6.3933276E-2,-2.1398308E-2,5.292703E-2,-3.3839156E-3,4.970095E-2,-1.3513679E-2,2.9925345E-2,5.5798527E-2,4.7690503E-2,-2.0418784E-2,-2.6840735E-2,-6.23779E-3,-1.7805661E-3,5.0370645E-2,5.6919336E-2,4.2561013E-3,-3.40582E-2,8.0435706E-4,-2.8190934E-3,5.2787203E-2,1.433266E-2,-1.2670745E-2,-2.3929875E-2,5.4328468E-2,-7.58505E-3,-3.226908E-2,-2.28791E-2,4.9819585E-2,9.888391E-4,-3.3954475E-2,9.895137E-4,-2.5945792E-2,1.1183216E-2,5.2624073E-2],"split_indices":[16,7,10,1,20,9,4,3,16,8,4,22,17,16,15,7,5,0,12,3,8,1,18,0,3,20,9,0,0,14,0,1,4,0,22,0,4,4,1,19,20,22,21,21,4,22,0,0,0,13,15,0,0,6,9,0,0,0,0,0,0,0,0,0,0,0,0,0,0,0,0,0,0,0,0,0,0,0,0,0,0,0,0,0,0,0,0,0,0],"split_type":[0,0,0,0,0,0,0,0,0,0,0,0,0,0,0,0,0,0,0,0,0,0,0,0,0,0,0,0,0,0,0,0,0,0,0,0,0,0,0,0,0,0,0,0,0,0,0,0,0,0,0,0,0,0,0,0,0,0,0,0,0,0,0,0,0,0,0,0,0,0,0,0,0,0,0,0,0,0,0,0,0,0,0,0,0,0,0,0,0],"sum_hessian":[1.5002168E3,1.2714636E3,2.2875328E2,2.5587901E2,1.01558453E3,2.0557932E2,2.317396E1,2.1399197E2,4.1887047E1,3.727815E2,6.4280304E2,2.1071482E1,1.8450784E2,7.291407E0,1.5882552E1,9.457642E1,1.1941555E2,2.7066282E1,1.4820765E1,3.4022852E2,3.2552994E1,1.6469363E2,4.781094E2,3.1900764E0,1.7881405E1,1.6678848E2,1.7719362E1,3.6354363E0,3.6559708E0,1.1468087E1,4.4144645E0,4.32117E1,5.1364723E1,8.718809E0,1.1069674E2,1.3514615E0,1.3469303E1,2.4128849E1,3.1609964E2,1.6208567E1,1.6344427E1,1.48326235E1,1.4986102E2,4.4778232E2,3.0327095E1,1.6507858E1,1.3735465E0,1.7306391E0,1.6505783E2,3.4476473E0,1.4271714E1,2.3020177E0,1.3334186E0,3.8526802E0,7.615407E0,4.188023E1,1.33147E0,2.7819681E1,2.3545042E1,1.1352364E1,9.9344376E1,4.6228094E0,8.846494E0,1.3994788E1,1.0134062E1,2.6078592E2,5.531372E1,1.1167974E1,5.0405912E0,1.4086633E1,2.2577937E0,1.2206243E1,2.6263814E0,2.312006E1,1.2674096E2,1.3727841E2,3.105039E2,1.7739103E0,2.8553185E1,8.758409E0,7.7494507E0,1.7116458E0,1.7360015E0,1.2998086E0,1.2971906E1,1.2979187E0,2.5547616E0,4.896115E0,2.719292E0],"tree_param":{"num_deleted":"0","num_feature":"24","num_nodes":"89","size_leaf_vector":"1"}},{"base_weights":[3.4401526E-3,1.6390283E-1,-2.4740382E-1,5.430418E-1,-1.0872262E-2,-6.9917366E-2,-4.9678898E-1,-2.583234E-1,6.51331E-1,-5.214921E-1,1.2701418E-1,2.3110195E-1,-2.8376088E-1,-7.897568E-2,-5.634848E-1,-3.4907043E-1,4.3914974E-2,2.8808284E-1,7.731886E-1,-6.273443E-1,-1.2790233E-1,2.556836E-1,-3.4668195E-1,4.4768482E-1,-4.7905537E-1,-7.2234E-2,-6.3078845E-1,-2.6658812E-1,5.8801705E-1,-5.802255E-1,-2.085488E-1,2.0879107E-2,-3.9481804E-1,7.808779E-1,-2.3286729E-1,9.9745595E-1,5.5139273E-1,-1.8838541E-1,-6.867891E-1,4.9777046E-2,-2.3438041E-1,-1.5586579E-1,4.1600415E-1,-5.5163234E-1,1.8689932E-2,6.124417E-1,-3.266635E-2,-6.126127E-1,6.114922E-1,-1.8673342E-1,6.1140615E-2,6.650456E-4,-6.4234143E-1,3.5703725E-1,-6.229312E-1,8.55637E-1,-2.1111986E-2,-3.8747463E-1,-6.089823E-1,5.3797555E-1,-3.1539705E-2,-2.877749E-2,-6.0717813E-3,-2.7974803E-2,4.580606E-2,3.4776077E-2,-1.8689303E-2,2.0784674E-2,5.508708E-2,9.1560883E-4,3.9685637E-2,1.805367E-2,-2.6977336E-2,-2.3820084E-2,-3.536134E-2,-2.9149864E-2,1.7495196E-3,8.329647E-3,-2.2277743E-2,2.6968176E-2,3.815364E-4,-3.032339E-2,4.6297017E-2,-2.3456674E-2,2.0756157E-2,4.476763E-2,1.2745822E-2,1.441127E-2,-2.898191E-2,-3.205174E-2,5.383946E-4,4.617181E-2,-9.738927E-4,-2.2354316E-2,2.6140069E-3,-3.328413E-2,-1.2182248E-2,4.1269075E-2,-1.8598923E-2,9.103009E-4,-3.3716515E-2,-2.604092E-4,5.385617E-2,-3.0955393E-2,-4.2001E-3,-3.070177E-2,1.7816204E-3,-2.022376E-2,5.1867433E-2],"categories":[],"categories_nodes":[],"categories_segments":[],"categories_sizes":[],"default_left":[1,1,0,1,0,0,0,1,0,0,0,0,1,0,0,0,0,0,0,0,0,0,0,0,0,0,0,0,0,0,0,0,0,0,0,0,0,0,0,0,0,0,0,0,0,0,0,0,0,0,0,0,0,0,0,0,0,0,0,0,0,0,0,0,0,0,0,0,0,0,0,0,0,0,0,0,0,0,0,0,0,0,0,0,0,0,0,0,0,0,0,0,0,0,0,0,0,0,0,0,0,0,0,0,0,0,0,0,0],"id":9,"left_children":[1,3,5,7,9,11,13,15,17,19,21,23,25,27,29,31,-1,33,35,37,39,41,43,45,47,49,51,53,55,57,59,-1,61,63,65,67,69,71,73,-1,75,77,79,81,83,85,87,89,91,93,-1,-1,95,97,99,101,-1,103,105,107,-1,-1,-1,-1,-1,-1,-1,-1,-1,-1,-1,-1,-1,-1,-1,-1,-1,-1,-1,-1,-1,-1,-1,-1,-1,-1,-1,-1,-1,-1,-1,-1,-1,-1,-1,-1,-1,-1,-1,-1,-1,-1,-1,-1,-1,-1,-1,-1,-1],"loss_changes":[6.005266E1,6.029854E1,2.5728634E1,2.5083702E1,4.3984455E1,2.2029734E1,6.694908E0,3.9058585E0,1.0985832E1,5.45348E0,3.0072994E1,2.2096767E1,1.4631277E1,4.4683E0,1.1172333E0,1.3233423E0,0E0,1.6920527E1,8.8519745E0,2.5952454E0,3.7510307E0,2.5628086E1,7.9110775E0,8.688976E0,5.287727E0,1.8815817E1,5.710125E-1,6.3511343E0,2.4906363E0,8.639908E-1,3.790129E0,0E0,1.4956169E0,6.6281147E0,4.507381E0,5.169014E0,1.2550154E1,2.8636355E0,5.6869507E-2,0E0,2.6188443E0,1.0288367E1,1.405582E1,6.040804E0,7.714205E0,8.02677E0,5.2439036E0,5.482044E-1,8.4089184E-1,7.2441196E0,0E0,0E0,5.290432E-1,3.948079E0,6.026397E-1,1.2557778E0,0E0,1.9522228E0,5.7865906E-1,2.5349355E0,0E0,0E0,0E0,0E0,0E0,0E0,0E0,0E0,0E0,0E0,0E0,0E0,0E0,0E0,0E0,0E0,0E0,0E0,0E0,0E0,0E0,0E0,0E0,0E0,0E0,0E0,0E0,0E0,0E0,0E0,0E0,0E0,0E0,0E0,0E0,0E0,0E0,0E0,0E0,0E0,0E0,0E0,0E0,0E0,0E0,0E0,0E0,0E0,0E0],"parents":[2147483647,0,0,1,1,2,2,3,3,4,4,5,5,6,6,7,7,8,8,9,9,10,10,11,11,12,12,13,13,14,14,15,15,17,17,18,18,19,19,20,20,21,21,22,22,23,23,24,24,25,25,26,26,27,27,28,28,29,29,30,30,32,32,33,33,34,34,35,35,36,36,37,37,38,38,40,40,41,41,42,42,43,43,44,44,45,45,46,46,47,47,48,48,49,49,52,52,53,53,54,54,55,55,57,57,58,58,59,59],"right_children":[2,4,6,8,10,12,14,16,18,20,22,24,26,28,30,32,-1,34,36,38,40,42,44,46,48,50,52,54,56,58,60,-1,62,64,66,68,70,72,74,-1,76,78,80,82,84,86,88,90,92,94,-1,-1,96,98,100,102,-1,104,106,108,-1,-1,-1,-1,-1,-1,-1,-1,-1,-1,-1,-1,-1,-1,-1,-1,-1,-1,-1,-1,-1,-1,-1,-1,-1,-1,-1,-1,-1,-1,-1,-1,-1,-1,-1,-1,-1,-1,-1,-1,-1,-1,-1,-1,-1,-1,-1,-1,-1],"split_conditions":[1.0229725E-1,-3.296675E-1,-3.916755E-1,-1.4963771E0,-4.9437958E-1,7.946326E-1,-1.3578354E0,-5.836717E-1,-8.936724E-1,-2.011467E-1,1.6835281E0,2.0549285E-1,-8.679584E-1,-4.5460853E-1,6.379621E-1,4.6126414E-2,4.3914974E-2,-1.0634538E0,-2.649502E-1,-4.9009013E-1,-4.9978882E-1,1.376292E-1,1.9542854E0,-8.74549E-2,1.1222993E0,-2.412306E-2,-8.182534E-1,-8.7905014E-1,-6.406778E-1,-7.808978E-1,4.3540558E-1,2.0879107E-2,-1.9584872E-1,-4.69568E-1,-1.1699232E0,-6.3189703E-1,-5.3190064E-1,-7.794248E-2,-3.984766E-1,4.9777046E-2,2.4413693E-1,-1.4430237E-1,1.0434417E0,1.590025E0,1.0875356E0,-5.3847283E-1,5.84577E-1,2.2286265E0,5.5875075E-1,-3.9067286E-1,6.1140615E-2,6.650456E-4,1.3622867E0,-9.33811E-1,2.805205E-1,-1.302122E-1,-2.1111986E-2,-1.3650896E-1,3.1171112E0,-5.470414E-1,-3.1539705E-2,-2.877749E-2,-6.0717813E-3,-2.7974803E-2,4.580606E-2,3.4776077E-2,-1.8689303E-2,2.0784674E-2,5.508708E-2,9.1560883E-4,3.9685637E-2,1.805367E-2,-2.6977336E-2,-2.3820084E-2,-3.536134E-2,-2.9149864E-2,1.7495196E-3,8.329647E-3,-2.2277743E-2,2.6968176E-2,3.815364E-4,-3.032339E-2,4.6297017E-2,-2.3456674E-2,2.0756157E-2,4.476763E-2,1.2745822E-2,1.441127E-2,-2.898191E-2,-3.205174E-2,5.383946E-4,4.617181E-2,-9.738927E-4,-2.2354316E-2,2.6140069E-3,-3.328413E-2,-1.2182248E-2,4.1269075E-2,-1.8598923E-2,9.103009E-4,-3.3716515E-2,-2.604092E-4,5.385617E-2,-3.0955393E-2,-4.2001E-3,-3.070177E-2,1.7816204E-3,-2.022376E-2,5.1867433E-2],"split_indices":[8,20,22,17,4,8,2,4,3,0,21,4,20,21,14,8,0,3,7,1,22,21,16,2,14,1,3,0,14,23,12,0,22,7,0,12,17,6,1,0,21,5,9,3,2,16,8,16,7,4,0,0,23,21,8,4,0,20,23,0,0,0,0,0,0,0,0,0,0,0,0,0,0,0,0,0,0,0,0,0,0,0,0,0,0,0,0,0,0,0,0,0,0,0,0,0,0,0,0,0,0,0,0,0,0,0,0,0,0],"split_type":[0,0,0,0,0,0,0,0,0,0,0,0,0,0,0,0,0,0,0,0,0,0,0,0,0,0,0,0,0,0,0,0,0,0,0,0,0,0,0,0,0,0,0,0,0,0,0,0,0,0,0,0,0,0,0,0,0,0,0,0,0,0,0,0,0,0,0,0,0,0,0,0,0,0,0,0,0,0,0,0,0,0,0,0,0,0,0,0,0,0,0,0,0,0,0,0,0,0,0,0,0,0,0,0,0,0,0,0,0],"sum_hessian":[1.4899436E3,9.0888464E2,5.810589E2,2.861132E2,6.227715E2,3.4021182E2,2.4084708E2,3.38952E1,2.5221797E2,1.3182314E2,4.9094833E2,1.4127032E2,1.9894151E2,3.345481E1,2.0739226E2,3.2030777E1,1.8644229E0,6.420169E1,1.8801628E2,1.0341639E2,2.8406742E1,3.864403E2,1.0450801E2,1.085381E2,3.2732216E1,1.24352165E2,7.458935E1,2.6578966E1,6.875847E0,1.9744493E2,9.947328E0,1.3460078E0,3.0684769E1,3.273599E1,3.1465704E1,9.174836E1,9.626793E1,1.283176E1,9.0584625E1,1.7363976E0,2.6670345E1,1.0834418E2,2.7809613E2,6.662554E1,3.788247E1,8.061334E1,2.792476E1,2.9551365E1,3.1808493E0,1.1503715E2,9.315015E0,1.3116615E0,7.327769E1,9.6641245E0,1.691484E1,5.5568666E0,1.3189801E0,2.7511953E1,1.6993298E2,3.4946854E0,6.4526424E0,1.7807215E1,1.2877554E1,2.7128112E0,3.0023176E1,3.6280544E0,2.7837648E1,1.4704533E1,7.704382E1,3.0420763E1,6.584717E1,4.9922333E0,7.8395267E0,1.017297E1,8.041166E1,1.1117674E1,1.55526705E1,5.147322E1,5.6870953E1,2.1333287E2,6.476327E1,6.4809875E1,1.8156636E0,1.6901394E1,2.0981077E1,4.416284E1,3.64505E1,1.7897749E1,1.0027012E1,2.8235687E1,1.3156786E0,1.8183571E0,1.3624921E0,5.464397E1,6.039318E1,6.8592384E1,4.6853023E0,5.803545E0,3.860579E0,1.3033264E0,1.5611515E1,1.3369733E0,4.2198935E0,1.50128975E1,1.2499055E1,1.6865833E2,1.2746499E0,1.2761959E0,2.2184894E0],"tree_param":{"num_deleted":"0","num_feature":"24","num_nodes":"109","size_leaf_vector":"1"}},{"base_weights":[-5.807098E-3,-5.5221755E-2,2.1344836E-1,1.803953E-2,-2.6361778E-1,3.96391E-1,-3.2646465E-1,-1.4617649E-1,2.1743889E-1,-3.729818E-1,1.3775924E-1,4.3761897E-1,-3.3120286E-2,2.4370345E-1,-4.4408378E-1,-2.3149845E-1,2.8232865E-2,-3.4613603E-1,3.1657088E-1,4.1403562E-1,-4.2756873E-1,6.552091E-1,-1.5741657E-1,8.286068E-1,3.3771342E-1,5.2093953E-2,-4.025432E-1,-5.77696E-1,5.7970005E-1,-5.799045E-1,-1.6180554E-1,-1.7466466E-1,3.8868216E-1,-5.496455E-1,1.9977331E-1,-1.18525065E-1,4.526218E-1,9.961277E-1,-3.9998522E-1,5.797706E-1,-4.4770035E-1,8.744995E-1,-4.0433133E-1,-4.919856E-1,2.8744477E-1,1.0603929E-1,9.7289336E-1,5.191636E-1,1.0194048E-1,-3.2039165E-2,2.0945292E-2,-6.121258E-1,2.1183306E-2,5.6494504E-2,-2.730894E-1,8.785595E-3,-3.2150965E-2,1.4354488E-3,-1.3639403E-2,2.4326863E-2,-1.3598399E-2,-2.8337682E-2,2.906541E-2,8.911921E-3,-3.3515368E-2,-3.1171418E-3,3.6281563E-2,1.4955382E-2,-1.7645547E-2,3.0705532E-2,8.94451E-3,5.765477E-2,-5.394646E-4,-3.1261727E-2,1.0736196E-2,-2.1130774E-2,5.2397378E-2,-1.5898656E-2,-2.7932987E-2,-3.8729426E-3,5.2066535E-2,-2.6056526E-4,-2.7417203E-2,4.0856842E-2,-2.9918078E-2,3.152292E-2,-1.4363485E-2,3.8949423E-2,-2.0600645E-2,5.562638E-2,-1.0950466E-3,2.1152988E-3,3.1529542E-2,-3.541467E-3,3.4761135E-2,-3.6085527E-2,-1.7809445E-2,-2.1701088E-2,3.7693445E-4],"categories":[],"categories_nodes":[],"categories_segments":[],"categories_sizes":[],"default_left":[1,1,0,0,0,0,0,0,0,0,0,0,0,0,0,1,1,0,0,0,0,0,0,0,0,0,0,0,0,0,0,1,0,0,0,1,1,0,0,0,0,0,0,0,0,0,0,0,0,0,0,0,0,0,0,0,0,0,0,0,0,0,0,0,0,0,0,0,0,0,0,0,0,0,0,0,0,0,0,0,0,0,0,0,0,0,0,0,0,0,0,0,0,0,0,0,0,0,0],"id":10,"left_children":[1,3,5,7,9,11,13,15,17,19,21,23,-1,25,27,29,31,33,35,37,39,41,43,45,47,-1,49,51,53,55,57,59,61,63,65,67,69,71,73,75,77,79,81,83,85,87,89,91,93,-1,-1,95,-1,-1,97,-1,-1,-1,-1,-1,-1,-1,-1,-1,-1,-1,-1,-1,-1,-1,-1,-1,-1,-1,-1,-1,-1,-1,-1,-1,-1,-1,-1,-1,-1,-1,-1,-1,-1,-1,-1,-1,-1,-1,-1,-1,-1,-1,-1],"loss_changes":[1.6280962E1,1.8726048E1,2.7429089E1,2.9770853E1,1.4054979E1,9.321072E0,4.835974E0,7.426834E0,2.30474E1,1.095916E1,1.0648309E1,7.5223236E0,0E0,6.9710727E0,8.377593E0,8.039181E0,1.2112832E1,6.9860125E0,2.07528E1,8.352449E0,5.0290375E0,6.22542E0,6.8046603E0,4.0631847E0,6.825245E0,0E0,1.7831742E0,2.069683E0,3.7274368E0,2.7572117E0,5.9387107E0,6.9564667E0,1.130347E1,4.1026764E0,2.4630113E0,8.336664E0,1.1674583E1,1.6046782E0,1.2021346E0,2.809937E0,3.1495743E0,3.456213E0,2.855326E-1,4.0986295E0,4.0938683E0,3.031149E0,4.634474E0,4.7878876E0,7.3438234E0,0E0,0E0,1.1781693E0,0E0,0E0,1.6869527E-1,0E0,0E0,0E0,0E0,0E0,0E0,0E0,0E0,0E0,0E0,0E0,0E0,0E0,0E0,0E0,0E0,0E0,0E0,0E0,0E0,0E0,0E0,0E0,0E0,0E0,0E0,0E0,0E0,0E0,0E0,0E0,0E0,0E0,0E0,0E0,0E0,0E0,0E0,0E0,0E0,0E0,0E0,0E0,0E0],"parents":[2147483647,0,0,1,1,2,2,3,3,4,4,5,5,6,6,7,7,8,8,9,9,10,10,11,11,13,13,14,14,15,15,16,16,17,17,18,18,19,19,20,20,21,21,22,22,23,23,24,24,26,26,27,27,28,28,29,29,30,30,31,31,32,32,33,33,34,34,35,35,36,36,37,37,38,38,39,39,40,40,41,41,42,42,43,43,44,44,45,45,46,46,47,47,48,48,51,51,54,54],"right_children":[2,4,6,8,10,12,14,16,18,20,22,24,-1,26,28,30,32,34,36,38,40,42,44,46,48,-1,50,52,54,56,58,60,62,64,66,68,70,72,74,76,78,80,82,84,86,88,90,92,94,-1,-1,96,-1,-1,98,-1,-1,-1,-1,-1,-1,-1,-1,-1,-1,-1,-1,-1,-1,-1,-1,-1,-1,-1,-1,-1,-1,-1,-1,-1,-1,-1,-1,-1,-1,-1,-1,-1,-1,-1,-1,-1,-1,-1,-1,-1,-1,-1,-1],"split_conditions":[6.6953695E-1,1.583072E-1,1.365932E0,-3.8313028E-1,9.673816E-1,1.3176644E0,-4.2717236E-1,2.233486E-1,-5.01512E-1,-1.0481547E0,7.0219445E-1,1.0173452E0,-3.3120286E-2,1.5252215E0,3.2344427E0,-1.3121271E0,7.849343E-1,3.9711076E-1,-7.505084E-1,1.87346E-1,-5.9904087E-1,4.550684E-1,1.0503381E0,-6.640724E-2,4.6557438E-2,5.2093953E-2,2.2740624E0,4.087208E0,3.3955522E0,-1.508242E0,-7.5049406E-1,-1.2801272E0,-9.6923983E-1,-5.375596E-1,-6.9125223E-1,-1.551622E0,-5.3921944E-1,-1.0466727E0,9.244589E-1,6.6954E-1,-3.2692704E-1,1.0485718E-1,-1.1718501E0,-3.5972023E-1,8.175622E-1,-1.3558291E-1,-1.8812005E-1,1.2793037E0,2.0848577E0,-3.2039165E-2,2.0945292E-2,2.0100358E0,2.1183306E-2,5.6494504E-2,1.054974E-1,8.785595E-3,-3.2150965E-2,1.4354488E-3,-1.3639403E-2,2.4326863E-2,-1.3598399E-2,-2.8337682E-2,2.906541E-2,8.911921E-3,-3.3515368E-2,-3.1171418E-3,3.6281563E-2,1.4955382E-2,-1.7645547E-2,3.0705532E-2,8.94451E-3,5.765477E-2,-5.394646E-4,-3.1261727E-2,1.0736196E-2,-2.1130774E-2,5.2397378E-2,-1.5898656E-2,-2.7932987E-2,-3.8729426E-3,5.2066535E-2,-2.6056526E-4,-2.7417203E-2,4.0856842E-2,-2.9918078E-2,3.152292E-2,-1.4363485E-2,3.8949423E-2,-2.0600645E-2,5.562638E-2,-1.0950466E-3,2.1152988E-3,3.1529542E-2,-3.541467E-3,3.4761135E-2,-3.6085527E-2,-1.7809445E-2,-2.1701088E-2,3.7693445E-4],"split_indices":[16,20,17,22,20,5,22,5,8,19,21,16,0,10,14,16,8,15,21,8,16,4,13,4,15,0,6,12,5,13,10,9,1,15,8,20,4,5,1,2,22,9,8,19,4,7,22,16,21,0,0,12,0,0,0,0,0,0,0,0,0,0,0,0,0,0,0,0,0,0,0,0,0,0,0,0,0,0,0,0,0,0,0,0,0,0,0,0,0,0,0,0,0,0,0,0,0,0,0],"split_type":[0,0,0,0,0,0,0,0,0,0,0,0,0,0,0,0,0,0,0,0,0,0,0,0,0,0,0,0,0,0,0,0,0,0,0,0,0,0,0,0,0,0,0,0,0,0,0,0,0,0,0,0,0,0,0,0,0,0,0,0,0,0,0,0,0,0,0,0,0,0,0,0,0,0,0,0,0,0,0,0,0,0,0,0,0,0,0,0,0,0,0,0,0,0,0,0,0,0,0],"sum_hessian":[1.5006176E3,1.2252297E3,2.753878E2,9.072137E2,3.1801608E2,2.0589032E2,6.949748E1,4.9764413E2,4.0956958E2,2.4997548E2,6.804059E1,1.9873842E2,7.1519E0,1.1701509E1,5.7795975E1,3.339478E2,1.6369632E2,6.0893337E1,3.4867624E2,1.5786456E1,2.3418903E2,2.4271816E1,4.376877E1,3.896238E1,1.5977603E2,4.96145E0,6.7400594E0,5.1509308E1,6.286664E0,5.4445446E1,2.7950238E2,1.050685E2,5.8627815E1,4.435238E1,1.654096E1,8.308765E1,2.655886E2,9.074049E0,6.712407E0,4.0438714E0,2.3014516E2,2.0254448E1,4.0173693E0,2.4920647E1,1.8848122E1,6.7740064E0,3.2188374E1,8.961026E1,7.016577E1,5.395243E0,1.3448161E0,5.017292E1,1.3363872E0,3.6237876E0,2.6628764E0,4.0595965E0,5.038585E1,1.0315905E2,1.7634332E2,1.29653425E1,9.210316E1,9.510912E0,4.91169E1,6.238984E0,3.811339E1,1.1626919E1,4.914042E0,2.976886E1,5.3318787E1,1.6625967E2,9.9328926E1,7.7246795E0,1.3493698E0,4.8998284E0,1.8125784E0,1.3184123E0,2.725459E0,1.0788176E2,1.222634E2,3.1001766E0,1.715427E1,1.3399602E0,2.6774092E0,1.370681E0,2.3549967E1,1.1742634E1,7.105488E0,2.727413E0,4.0465937E0,2.8122599E1,4.065776E0,1.7234428E1,7.237583E1,5.50231E1,1.5142673E1,3.385662E1,1.6316303E1,1.3449672E0,1.3179091E0],"tree_param":{"num_deleted":"0","num_feature":"24","num_nodes":"99","size_leaf_vector":"1"}},{"base_weights":[1.7549384E-2,1.1043227E-1,-5.141558E-1,4.7901374E-1,4.8629846E-3,-6.1033475E-1,2.2997476E-1,3.404502E-1,1.0969687E0,-2.9567507E-1,1.7005947E-1,-1.3534154E-1,-6.741359E-1,8.58458E-1,-6.490308E-2,7.6795113E-1,-7.388188E-3,5.2414215E-1,1.1679964E0,-3.9395478E-1,5.463069E-1,7.11682E-1,4.8237093E-4,4.1801993E-2,-3.208125E-1,-6.8432575E-1,-3.3443224E-1,3.5076421E-1,5.534019E-2,-2.2514305E-1,4.5467027E-2,1.2101659E0,4.8507676E-1,6.9704E-1,-1.80901E-1,5.2922565E-2,-2.567111E-2,5.926619E-2,1.843212E-2,5.8648426E-2,-4.3102834E-1,1.1725627E0,2.3137145E-1,-3.3540256E-2,8.310853E-1,-6.360992E-2,8.871115E-1,-4.4094145E-1,4.1454595E-2,-3.5026237E-2,-5.2649724E-1,-2.9795576E-2,2.2992043E-2,3.896686E-2,-7.0269704E-3,-4.8034635E-1,1.8021084E-1,6.2754706E-2,3.3755716E-2,4.7439523E-2,9.1928587E-4,-9.793154E-3,4.8271038E-2,3.7674736E-2,-1.4736888E-2,-2.3627192E-2,4.0173666E-3,1.8200897E-2,6.223145E-2,-1.1827618E-2,3.283673E-2,-2.1517983E-2,4.878466E-2,1.2453576E-2,-1.365002E-2,4.910807E-2,-2.4287276E-2,-3.25167E-2,-1.1963576E-2,2.2280648E-2,-3.3668123E-2,1.2383512E-2,-3.2667305E-2,3.9121423E-2,-1.7829848E-2],"categories":[],"categories_nodes":[],"categories_segments":[],"categories_sizes":[],"default_left":[0,0,1,0,0,1,0,0,0,0,0,0,1,0,0,0,0,0,0,0,0,0,0,0,1,0,0,0,0,0,0,0,0,0,0,0,0,0,0,0,0,0,0,0,0,0,0,0,0,0,0,0,0,0,0,0,0,0,0,0,0,0,0,0,0,0,0,0,0,0,0,0,0,0,0,0,0,0,0,0,0,0,0,0,0],"id":11,"left_children":[1,3,5,7,9,11,13,15,17,19,21,23,25,27,29,31,33,35,37,39,41,43,45,-1,47,49,51,53,-1,55,-1,57,59,61,63,-1,-1,-1,-1,-1,65,67,69,-1,71,73,75,77,-1,-1,79,-1,-1,-1,-1,81,83,-1,-1,-1,-1,-1,-1,-1,-1,-1,-1,-1,-1,-1,-1,-1,-1,-1,-1,-1,-1,-1,-1,-1,-1,-1,-1,-1,-1],"loss_changes":[7.344921E1,4.925552E1,1.5969715E1,2.3759766E1,4.8956863E1,5.852585E0,4.8818083E0,3.4455605E1,1.4698372E0,2.9158642E1,5.844172E1,4.67792E0,3.687973E-1,6.691847E-1,3.1169417E0,1.2415459E1,1.5860192E1,4.6786857E0,1.823616E-1,1.8734192E1,7.021943E0,2.5602028E1,2.7650167E1,0E0,3.3044107E0,5.7304382E-2,1.7245094E0,9.978356E-1,0E0,1.8266797E0,0E0,1.1138916E-1,1.4062683E1,6.3351755E0,1.1293009E1,0E0,0E0,0E0,0E0,0E0,6.5613327E0,2.5359535E-1,5.3006115E0,0E0,2.5976616E1,2.9778118E1,4.757429E0,6.853788E-1,0E0,0E0,3.0897288E0,0E0,0E0,0E0,0E0,1.4962492E0,2.6149929E0,0E0,0E0,0E0,0E0,0E0,0E0,0E0,0E0,0E0,0E0,0E0,0E0,0E0,0E0,0E0,0E0,0E0,0E0,0E0,0E0,0E0,0E0,0E0,0E0,0E0,0E0,0E0,0E0],"parents":[2147483647,0,0,1,1,2,2,3,3,4,4,5,5,6,6,7,7,8,8,9,9,10,10,11,11,12,12,13,13,14,14,15,15,16,16,17,17,18,18,19,19,20,20,21,21,22,22,24,24,25,25,26,26,27,27,29,29,31,31,32,32,33,33,34,34,40,40,41,41,42,42,44,44,45,45,46,46,47,47,50,50,55,55,56,56],"right_children":[2,4,6,8,10,12,14,16,18,20,22,24,26,28,30,32,34,36,38,40,42,44,46,-1,48,50,52,54,-1,56,-1,58,60,62,64,-1,-1,-1,-1,-1,66,68,70,-1,72,74,76,78,-1,-1,80,-1,-1,-1,-1,82,84,-1,-1,-1,-1,-1,-1,-1,-1,-1,-1,-1,-1,-1,-1,-1,-1,-1,-1,-1,-1,-1,-1,-1,-1,-1,-1,-1,-1],"split_conditions":[1.8825935E0,-7.3215306E-1,1.7915286E0,3.7560543E-1,-2.4658537E-1,-2.0012348E0,4.9510318E-1,-6.824376E-1,-5.836717E-1,1.0000391E0,-5.6639636E-1,-4.6081096E-1,3.890999E-1,2.2754164E0,-1.0107378E-1,-9.8487914E-1,-1.1427734E0,4.3540126E-1,2.9052475E-1,-1.2423722E0,-1.1602137E0,-4.546242E-1,1.8891009E0,4.1801993E-2,2.7564907E0,2.0700674E0,-2.141466E-1,8.902875E-1,5.534019E-2,3.0076468E0,4.5467027E-2,-1.1634085E0,-5.510772E-1,-4.3732935E-1,-5.0635E-1,5.2922565E-2,-2.567111E-2,5.926619E-2,1.843212E-2,5.8648426E-2,-1.317513E-1,-1.6224487E0,-6.8571025E-1,-3.3540256E-2,-4.471637E-1,1.663369E-1,8.7140656E-1,5.610852E-1,4.1454595E-2,-3.5026237E-2,-4.4215482E-1,-2.9795576E-2,2.2992043E-2,3.896686E-2,-7.0269704E-3,1.8802977E0,4.1171374E0,6.2754706E-2,3.3755716E-2,4.7439523E-2,9.1928587E-4,-9.793154E-3,4.8271038E-2,3.7674736E-2,-1.4736888E-2,-2.3627192E-2,4.0173666E-3,1.8200897E-2,6.223145E-2,-1.1827618E-2,3.283673E-2,-2.1517983E-2,4.878466E-2,1.2453576E-2,-1.365002E-2,4.910807E-2,-2.4287276E-2,-3.25167E-2,-1.1963576E-2,2.2280648E-2,-3.3668123E-2,1.2383512E-2,-3.2667305E-2,3.9121423E-2,-1.7829848E-2],"split_indices":[16,7,10,1,20,9,4,3,4,8,4,22,8,16,8,7,9,0,10,3,16,1,18,0,3,23,22,3,0,6,0,20,4,0,22,0,0,0,0,0,1,2,17,0,18,21,0,19,0,0,22,0,0,0,0,10,7,0,0,0,0,0,0,0,0,0,0,0,0,0,0,0,0,0,0,0,0,0,0,0,0,0,0,0,0],"split_type":[0,0,0,0,0,0,0,0,0,0,0,0,0,0,0,0,0,0,0,0,0,0,0,0,0,0,0,0,0,0,0,0,0,0,0,0,0,0,0,0,0,0,0,0,0,0,0,0,0,0,0,0,0,0,0,0,0,0,0,0,0,0,0,0,0,0,0,0,0,0,0,0,0,0,0,0,0,0,0,0,0,0,0,0,0],"sum_hessian":[1.4850885E3,1.2649146E3,2.2017397E2,2.808446E2,9.8406995E2,1.9513283E2,2.5041124E1,2.3067212E2,5.0172497E1,3.4877042E2,6.3529956E2,2.347621E1,1.7165663E2,7.386594E0,1.7654531E1,1.0294396E2,1.2772816E2,6.4592376E0,4.3713257E1,3.1279208E2,3.597832E1,1.5071739E2,4.8458218E2,3.2014337E0,2.0274776E1,1.6567259E2,5.9840317E0,3.218799E0,4.1677947E0,1.582122E1,1.8333106E0,3.8882004E1,6.406196E1,2.4647379E1,1.0308078E2,4.2503343E0,2.2089036E0,4.2313187E1,1.4000698E0,6.5214667E0,3.0627063E2,1.1127623E1,2.4850697E1,1.1615194E1,1.3910219E2,4.5278006E2,3.1802128E1,1.8915264E1,1.3595113E0,1.4713286E2,1.853973E1,4.689847E0,1.2941846E0,1.4060302E0,1.8127692E0,9.595234E0,6.2259865E0,3.462851E1,4.253493E0,3.1615318E1,3.2446636E1,5.758625E0,1.8888754E1,1.058422E1,9.249656E1,2.833436E2,2.2927023E1,1.405854E0,9.721769E0,1.2044709E1,1.2805988E1,1.4102967E1,1.2499922E2,1.8152316E2,2.7125687E2,3.0009035E1,1.7930924E0,8.188477E0,1.0726788E1,2.1663508E0,1.637338E1,1.7594609E0,7.835773E0,2.7185853E0,3.5074015E0],"tree_param":{"num_deleted":"0","num_feature":"24","num_nodes":"85","size_leaf_vector":"1"}},{"base_weights":[9.027517E-3,1.8086445E-1,-2.6027128E-1,5.2496785E-1,2.8199626E-3,-8.345229E-2,-5.125134E-1,-3.718418E-1,6.104812E-1,-5.115552E-1,1.3327093E-1,1.5767491E-1,-3.0793342E-1,-1.2809302E-1,-5.7349986E-1,-5.609464E-1,-1.592731E-2,4.7441342E-1,8.41996E-1,-5.521633E-1,4.3479177E-1,2.507376E-1,-3.3812535E-1,6.608336E-1,-7.329375E-2,-1.1608356E-1,-6.5117633E-1,-3.0996203E-1,6.3191897E-1,-1.2002657E-1,-5.8445704E-1,-3.3271927E-2,7.7919625E-3,-4.5179075E-1,4.8024076E-1,5.31577E-1,-4.8909917E-1,1.3315573E-1,1.0780333E0,4.0001463E-2,-5.7518303E-1,4.736784E-2,-1.11171175E-2,-2.1499814E-1,3.8403916E-1,-6.328753E-1,-6.600378E-2,8.0988693E-1,-2.708653E-1,8.507769E-1,-1.5679088E-1,-2.4250117E-1,5.8947332E-2,-6.657605E-1,1.8790935E-3,1.3451722E-1,-5.641746E-1,5.33983E-2,-2.2591708E-2,3.0305142E-2,-2.7631018E-2,-1.8730812E-1,-5.955619E-1,-2.9016156E-2,8.2755985E-4,3.920591E-2,-5.293923E-3,2.1730287E-2,5.0676953E-2,-3.274033E-2,1.0159551E-2,-1.3963315E-2,3.1871714E-2,5.5517234E-2,-2.1770945E-2,2.2304498E-3,-3.0208085E-2,1.4829126E-2,-2.2887846E-2,2.3797235E-2,-2.0862026E-2,-1.5315085E-2,-3.4673635E-2,-2.3626316E-2,2.6003474E-2,5.0796945E-2,-4.2857043E-4,-3.0768184E-2,2.9667446E-2,-9.000184E-3,5.8449995E-2,2.2167962E-2,-1.5101166E-2,-2.2822967E-2,7.13126E-4,-3.4017198E-2,-8.582405E-3,2.8961549E-2,-2.8431013E-2,-3.3169694E-2,8.176823E-4,4.2151164E-2,-2.9286651E-2,-3.2910947E-2,-2.526534E-2],"categories":[],"categories_nodes":[],"categories_segments":[],"categories_sizes":[],"default_left":[1,1,0,1,0,0,0,0,1,0,0,0,1,0,0,1,0,1,1,0,0,0,0,0,0,0,0,0,0,0,0,0,0,1,0,1,0,0,1,0,0,0,0,0,0,0,0,0,0,0,0,0,0,0,0,0,0,0,0,0,0,0,0,0,0,0,0,0,0,0,0,0,0,0,0,0,0,0,0,0,0,0,0,0,0,0,0,0,0,0,0,0,0,0,0,0,0,0,0,0,0,0,0,0,0],"id":12,"left_children":[1,3,5,7,9,11,13,15,17,19,21,23,25,27,29,31,33,35,37,39,41,43,45,47,49,51,53,55,57,59,61,-1,-1,63,65,67,69,71,73,-1,75,-1,-1,77,79,81,83,85,87,89,91,93,-1,95,-1,97,99,-1,-1,-1,-1,101,103,-1,-1,-1,-1,-1,-1,-1,-1,-1,-1,-1,-1,-1,-1,-1,-1,-1,-1,-1,-1,-1,-1,-1,-1,-1,-1,-1,-1,-1,-1,-1,-1,-1,-1,-1,-1,-1,-1,-1,-1,-1,-1],"loss_changes":[6.923145E1,5.595075E1,2.5950062E1,2.4108513E1,4.052088E1,1.8658411E1,5.5526047E0,1.8574395E0,8.568329E0,4.934948E0,2.6757927E1,1.9388746E1,1.16715145E1,4.915569E0,9.575348E-1,1.4578195E0,2.5203032E0,1.0261482E1,1.7271675E1,4.1201744E0,2.092162E0,2.4057997E1,7.6994734E0,7.504408E0,9.003517E0,1.9219004E1,6.653061E-1,3.2649062E0,3.7538016E0,2.2630367E0,7.7796173E-1,0E0,0E0,3.819343E-1,1.0564764E0,7.5934067E0,1.3594706E0,5.823057E0,4.2950897E0,0E0,2.113922E0,0E0,0E0,1.088778E1,2.2335754E1,7.0215607E-1,1.2468121E1,7.677679E0,2.7421937E0,3.3864546E0,9.397331E0,5.8403053E0,0E0,3.333931E-1,0E0,3.7928543E0,1.0561109E0,0E0,0E0,0E0,0E0,3.3447635E0,7.743683E-1,0E0,0E0,0E0,0E0,0E0,0E0,0E0,0E0,0E0,0E0,0E0,0E0,0E0,0E0,0E0,0E0,0E0,0E0,0E0,0E0,0E0,0E0,0E0,0E0,0E0,0E0,0E0,0E0,0E0,0E0,0E0,0E0,0E0,0E0,0E0,0E0,0E0,0E0,0E0,0E0,0E0,0E0],"parents":[2147483647,0,0,1,1,2,2,3,3,4,4,5,5,6,6,7,7,8,8,9,9,10,10,11,11,12,12,13,13,14,14,15,15,16,16,17,17,18,18,19,19,20,20,21,21,22,22,23,23,24,24,25,25,26,26,27,27,28,28,29,29,30,30,33,33,34,34,35,35,36,36,37,37,38,38,40,40,43,43,44,44,45,45,46,46,47,47,48,48,49,49,50,50,51,51,53,53,55,55,56,56,61,61,62,62],"right_children":[2,4,6,8,10,12,14,16,18,20,22,24,26,28,30,32,34,36,38,40,42,44,46,48,50,52,54,56,58,60,62,-1,-1,64,66,68,70,72,74,-1,76,-1,-1,78,80,82,84,86,88,90,92,94,-1,96,-1,98,100,-1,-1,-1,-1,102,104,-1,-1,-1,-1,-1,-1,-1,-1,-1,-1,-1,-1,-1,-1,-1,-1,-1,-1,-1,-1,-1,-1,-1,-1,-1,-1,-1,-1,-1,-1,-1,-1,-1,-1,-1,-1,-1,-1,-1,-1,-1,-1],"split_conditions":[1.0229725E-1,-2.3528957E-1,-3.916755E-1,-1.8601192E0,-4.795226E-1,9.140181E-1,-1.4777184E0,-2.0614584E-1,-5.967772E-1,2.2754164E0,1.6835281E0,-7.7169865E-1,-8.679584E-1,-4.331993E-1,1.1885415E-1,3.7875792E-1,-4.7069466E-1,-8.9755684E-2,-8.897884E-1,-1.0351199E0,2.879956E-1,1.126587E-3,6.75704E-1,4.1667205E-1,-1.1378499E0,-2.412306E-2,-4.6460572E-1,-8.7905014E-1,-5.961481E-1,-5.933581E-1,-1.44188E0,-3.3271927E-2,7.7919625E-3,-1.6731882E0,8.6026496E-1,-4.5615533E-1,-7.6212895E-1,6.025615E-1,3.2365677E-1,4.0001463E-2,-4.5190728E-1,4.736784E-2,-1.11171175E-2,-1.6084026E-1,2.7564907E0,1.4275684E0,1.0976518E0,-5.505331E-1,-8.679029E-1,-5.4598224E-1,-9.538032E-1,-1.2342832E0,5.8947332E-2,1.7912327E0,1.8790935E-3,-6.3538796E-1,-8.59337E-1,5.33983E-2,-2.2591708E-2,3.0305142E-2,-2.7631018E-2,-9.425531E-1,-4.115577E-1,-2.9016156E-2,8.2755985E-4,3.920591E-2,-5.293923E-3,2.1730287E-2,5.0676953E-2,-3.274033E-2,1.0159551E-2,-1.3963315E-2,3.1871714E-2,5.5517234E-2,-2.1770945E-2,2.2304498E-3,-3.0208085E-2,1.4829126E-2,-2.2887846E-2,2.3797235E-2,-2.0862026E-2,-1.5315085E-2,-3.4673635E-2,-2.3626316E-2,2.6003474E-2,5.0796945E-2,-4.2857043E-4,-3.0768184E-2,2.9667446E-2,-9.000184E-3,5.8449995E-2,2.2167962E-2,-1.5101166E-2,-2.2822967E-2,7.13126E-4,-3.4017198E-2,-8.582405E-3,2.8961549E-2,-2.8431013E-2,-3.3169694E-2,8.176823E-4,4.2151164E-2,-2.9286651E-2,-3.2910947E-2,-2.526534E-2],"split_indices":[8,20,22,17,4,8,19,22,0,16,21,3,20,21,8,19,15,16,5,1,9,7,0,5,10,1,21,0,14,9,2,0,0,2,22,4,1,4,16,0,10,0,0,5,3,6,2,12,3,20,20,18,0,23,0,11,13,0,0,0,0,0,10,0,0,0,0,0,0,0,0,0,0,0,0,0,0,0,0,0,0,0,0,0,0,0,0,0,0,0,0,0,0,0,0,0,0,0,0,0,0,0,0,0,0],"split_type":[0,0,0,0,0,0,0,0,0,0,0,0,0,0,0,0,0,0,0,0,0,0,0,0,0,0,0,0,0,0,0,0,0,0,0,0,0,0,0,0,0,0,0,0,0,0,0,0,0,0,0,0,0,0,0,0,0,0,0,0,0,0,0,0,0,0,0,0,0,0,0,0,0,0,0,0,0,0,0,0,0,0,0,0,0,0,0,0,0,0,0,0,0,0,0,0,0,0,0,0,0,0,0,0,0],"sum_hessian":[1.4940548E3,9.122716E2,5.8178326E2,3.1040634E2,6.018653E2,3.428088E2,2.3897443E2,2.6730068E1,2.8367627E2,1.2116879E2,4.8069647E2,1.6541997E2,1.7738885E2,3.3145626E1,2.058288E2,1.7079378E1,9.650691E0,1.8058849E2,1.0308778E2,1.1658272E2,4.586076E0,3.8518164E2,9.551485E1,5.145833E1,1.1396164E2,1.1464702E2,6.274183E1,2.7223314E1,5.9223113E0,5.138094E0,2.006907E2,1.4968869E1,2.1105087E0,5.18517E0,4.465521E0,1.7089772E2,9.690774E0,2.6142818E1,7.694496E1,1.3864726E0,1.1519624E2,2.3283288E0,2.2577472E0,8.557666E1,2.9960498E2,4.521465E1,5.0300198E1,4.4474094E1,6.984232E0,8.682484E0,1.0527916E2,1.0519125E2,9.455763E0,6.1473537E1,1.2682914E0,1.0076265E1,1.7147049E1,4.233524E0,1.6887875E0,1.768497E0,3.369597E0,5.94497E0,1.9474573E2,3.8809705E0,1.3041995E0,2.718357E0,1.7471638E0,1.4385558E2,2.7042137E1,7.8628564E0,1.8279179E0,1.4626668E1,1.151615E1,7.559736E1,1.3476049E0,5.121382E0,1.1007486E2,2.7468616E1,5.810804E1,2.6914093E2,3.0464033E1,8.024334E0,3.719031E1,2.9813896E1,2.0486301E1,3.5336605E1,9.137491E0,5.199518E0,1.7847137E0,2.1506135E0,6.53187E0,2.0112925E1,8.516624E1,5.6954227E1,4.8237026E1,5.9345108E1,2.1284292E0,6.280349E0,3.7959163E0,1.4522276E1,2.6247742E0,1.3466438E0,4.5983267E0,1.1123276E2,8.351297E1],"tree_param":{"num_deleted":"0","num_feature":"24","num_nodes":"105","size_leaf_vector":"1"}},{"base_weights":[3.8978956E-3,1.7090857E-1,-6.5858096E-2,-2.6449075E-1,2.6932037E-1,3.7562665E-2,-1.8723139E-1,-5.694038E-1,3.255823E-2,4.0458855E-1,4.0727142E-2,-2.0922633E-2,5.3427464E-1,-3.2458958E-1,4.4311337E-2,-6.3344663E-1,1.5466647E-1,8.649129E-1,-1.647259E-1,2.0507334E-1,5.8676475E-1,-2.2064792E-1,3.0809817E-1,-2.0066056E-1,1.5351894E-1,6.7753166E-1,-3.1873528E-2,-4.599662E-1,6.652095E-2,4.1203365E-1,-1.7254457E-1,5.545171E-4,-6.569797E-1,-2.3404693E-2,4.0350314E-2,-6.5310574E-3,5.7839673E-2,-4.5361048E-1,2.0379665E-1,-4.6587314E-2,5.588532E-1,9.081203E-1,3.655349E-1,3.3276156E-2,-6.056032E-1,5.999426E-1,1.0198307E-1,-4.4669288E-1,-5.7015404E-2,2.166736E-1,-3.4836065E-2,-2.6358524E-2,7.475043E-1,7.077865E-1,-4.8485556E-1,-4.538249E-1,3.2691264E-1,1.0648248E0,2.4084996E-1,-2.2715594E-1,4.6723112E-2,3.4017608E-4,-3.4107383E-2,-3.172771E-2,2.066569E-2,4.185156E-2,-2.128731E-2,1.7127441E-2,-1.4662844E-2,-5.9532668E-3,3.498129E-2,-2.1846239E-2,4.7830638E-2,4.3518424E-2,9.46829E-3,-7.2448254E-3,5.341974E-2,1.9547341E-2,-3.361917E-2,-1.174994E-2,4.1866727E-2,-1.9505542E-3,5.374962E-2,1.0603648E-2,-2.9440317E-2,8.628663E-3,-1.9058231E-2,3.1368587E-2,2.802436E-3,4.1142385E-2,-1.6419651E-2,4.9219485E-2,-1.6159607E-3,-2.5366804E-2,6.846526E-3,4.0614378E-2,-2.764265E-2,3.7040748E-2,-6.423399E-3,-6.783487E-3,6.275126E-2,4.960726E-2,4.149312E-3,1.6027806E-2,-1.7074605E-2],"categories":[],"categories_nodes":[],"categories_segments":[],"categories_sizes":[],"default_left":[1,0,0,0,1,0,1,0,0,0,1,0,0,0,0,0,0,0,1,0,1,1,0,0,0,0,0,0,0,0,0,0,0,0,0,0,0,1,0,0,1,0,0,1,0,0,0,0,0,0,0,0,0,0,0,0,0,0,0,0,0,0,0,0,0,0,0,0,0,0,0,0,0,0,0,0,0,0,0,0,0,0,0,0,0,0,0,0,0,0,0,0,0,0,0,0,0,0,0,0,0,0,0,0,0],"id":13,"left_children":[1,3,5,7,9,11,13,15,17,19,21,23,25,27,29,31,33,35,37,39,41,43,45,47,49,51,-1,53,55,57,59,-1,61,-1,-1,-1,-1,63,65,67,69,71,73,75,77,79,81,83,85,87,-1,-1,89,91,93,95,97,99,101,103,-1,-1,-1,-1,-1,-1,-1,-1,-1,-1,-1,-1,-1,-1,-1,-1,-1,-1,-1,-1,-1,-1,-1,-1,-1,-1,-1,-1,-1,-1,-1,-1,-1,-1,-1,-1,-1,-1,-1,-1,-1,-1,-1,-1,-1],"loss_changes":[1.7627127E1,1.917176E1,1.3404625E1,7.507683E0,1.1241518E1,1.6776533E1,1.5636944E1,1.9925556E0,7.1753807E0,8.18935E0,9.604577E0,1.6249544E1,1.0643156E1,1.636113E1,1.472613E1,5.796118E-1,2.0530527E0,2.582119E0,3.867796E0,9.877939E0,8.125763E0,6.8223324E0,4.02174E0,8.993883E0,1.4277212E1,5.0041733E0,0E0,7.006214E0,1.1012375E1,7.3948717E0,7.243741E0,0E0,6.13081E-1,0E0,0E0,0E0,0E0,3.429236E0,6.843679E0,6.39561E0,4.4801025E0,3.5378342E0,6.25045E0,8.062784E0,2.1069584E0,5.724806E0,5.66462E0,8.918497E0,1.2142615E1,1.6169846E1,0E0,0E0,4.4936047E0,1.0944443E0,3.215355E0,3.8544984E0,1.0277075E1,3.3515587E0,6.50453E0,7.1010604E0,0E0,0E0,0E0,0E0,0E0,0E0,0E0,0E0,0E0,0E0,0E0,0E0,0E0,0E0,0E0,0E0,0E0,0E0,0E0,0E0,0E0,0E0,0E0,0E0,0E0,0E0,0E0,0E0,0E0,0E0,0E0,0E0,0E0,0E0,0E0,0E0,0E0,0E0,0E0,0E0,0E0,0E0,0E0,0E0,0E0],"parents":[2147483647,0,0,1,1,2,2,3,3,4,4,5,5,6,6,7,7,8,8,9,9,10,10,11,11,12,12,13,13,14,14,15,15,16,16,17,17,18,18,19,19,20,20,21,21,22,22,23,23,24,24,25,25,27,27,28,28,29,29,30,30,32,32,37,37,38,38,39,39,40,40,41,41,42,42,43,43,44,44,45,45,46,46,47,47,48,48,49,49,52,52,53,53,54,54,55,55,56,56,57,57,58,58,59,59],"right_children":[2,4,6,8,10,12,14,16,18,20,22,24,26,28,30,32,34,36,38,40,42,44,46,48,50,52,-1,54,56,58,60,-1,62,-1,-1,-1,-1,64,66,68,70,72,74,76,78,80,82,84,86,88,-1,-1,90,92,94,96,98,100,102,104,-1,-1,-1,-1,-1,-1,-1,-1,-1,-1,-1,-1,-1,-1,-1,-1,-1,-1,-1,-1,-1,-1,-1,-1,-1,-1,-1,-1,-1,-1,-1,-1,-1,-1,-1,-1,-1,-1,-1,-1,-1,-1,-1,-1,-1],"split_conditions":[-5.406493E-1,-1.0894305E0,3.3240493E-2,-1.0836389E0,-2.7989924E-1,-1.7125504E-1,5.3194547E-1,-8.926606E-1,-6.558731E-1,-3.8313028E-1,7.321444E-1,-6.8777454E-1,-2.2641225E-2,8.46953E-1,6.626893E-1,-9.877671E-1,-3.231247E-1,-8.062831E-1,-1.9906645E-1,2.3209168E-1,-5.085598E-1,4.2120323E-2,-4.1126254E-1,-4.6081096E-1,1.0222032E-1,-8.764811E-1,-3.1873528E-2,-1.2675544E0,-1.4266238E-1,-2.9919982E-1,4.0936112E0,5.545171E-4,-4.723029E-1,-2.3404693E-2,4.0350314E-2,-6.5310574E-3,5.7839673E-2,-2.547425E-1,7.772016E-1,-7.58564E-1,-1.6119493E0,-1.2597374E0,-7.23598E-1,2.7714172E-1,-1.1575334E0,-8.114739E-1,2.2221358E0,-2.7769026E-1,-4.6110046E-1,-4.4425708E-1,-3.4836065E-2,-2.6358524E-2,8.239579E-2,-5.0619215E-1,1.674403E0,-6.845442E-1,7.0219445E-1,-1.5020412E-1,1.126587E-3,-3.0631192E-2,4.6723112E-2,3.4017608E-4,-3.4107383E-2,-3.172771E-2,2.066569E-2,4.185156E-2,-2.128731E-2,1.7127441E-2,-1.4662844E-2,-5.9532668E-3,3.498129E-2,-2.1846239E-2,4.7830638E-2,4.3518424E-2,9.46829E-3,-7.2448254E-3,5.341974E-2,1.9547341E-2,-3.361917E-2,-1.174994E-2,4.1866727E-2,-1.9505542E-3,5.374962E-2,1.0603648E-2,-2.9440317E-2,8.628663E-3,-1.9058231E-2,3.1368587E-2,2.802436E-3,4.1142385E-2,-1.6419651E-2,4.9219485E-2,-1.6159607E-3,-2.5366804E-2,6.846526E-3,4.0614378E-2,-2.764265E-2,3.7040748E-2,-6.423399E-3,-6.783487E-3,6.275126E-2,4.960726E-2,4.149312E-3,1.6027806E-2,-1.7074605E-2],"split_indices":[5,10,20,11,17,16,16,14,1,22,12,3,7,5,14,23,22,1,16,4,7,16,11,22,6,4,0,0,7,11,14,0,4,0,0,0,0,20,0,10,15,11,3,21,8,23,21,5,4,1,0,0,21,6,6,12,21,21,7,5,0,0,0,0,0,0,0,0,0,0,0,0,0,0,0,0,0,0,0,0,0,0,0,0,0,0,0,0,0,0,0,0,0,0,0,0,0,0,0,0,0,0,0,0,0],"split_type":[0,0,0,0,0,0,0,0,0,0,0,0,0,0,0,0,0,0,0,0,0,0,0,0,0,0,0,0,0,0,0,0,0,0,0,0,0,0,0,0,0,0,0,0,0,0,0,0,0,0,0,0,0,0,0,0,0,0,0,0,0,0,0,0,0,0,0,0,0,0,0,0,0,0,0,0,0,0,0,0,0,0,0,0,0,0,0,0,0,0,0,0,0,0,0,0,0,0,0,0,0,0,0,0,0],"sum_hessian":[1.5110925E3,4.447696E2,1.066323E3,8.168526E1,3.6308432E2,5.761137E2,4.9020926E2,3.985661E1,4.1828644E1,2.2762134E2,1.3546298E2,5.1628204E2,5.983169E1,3.0743036E2,1.827789E2,3.673281E1,3.123797E0,7.3661737E0,3.446247E1,1.0965517E2,1.1796617E2,6.858794E1,6.687505E1,2.5420679E2,2.6207523E2,5.3689426E1,6.1422663E0,2.2824942E2,7.918092E1,6.7470024E1,1.15308876E2,1.3125513E0,3.542026E1,1.7426263E0,1.3811707E0,1.7953051E0,5.570869E0,1.9189188E1,1.5273281E1,6.45827E1,4.5072468E1,4.6832714E1,7.113346E1,4.1877968E1,2.6709969E1,2.689E1,3.9985054E1,9.2929474E1,1.6127731E2,2.4464827E2,1.742697E1,2.588576E0,5.110085E1,4.190761E0,2.2405865E2,2.6160675E1,5.3020252E1,1.2932587E1,5.453744E1,1.1064528E2,4.6636024E0,1.3205919E0,3.409967E1,1.6097395E1,3.091794E0,7.450004E0,7.8232775E0,2.4904947E1,3.9677753E1,7.77665E0,3.729582E1,1.3509507E0,4.5481762E1,1.738219E1,5.3751266E1,3.6461884E1,5.4160833E0,1.3726016E0,2.5337366E1,5.955109E0,2.0934889E1,3.5762753E1,4.2223034E0,1.640268E1,7.6526794E1,9.468287E1,6.6594444E1,6.79648E1,1.7668347E2,4.7976337E1,3.1245108E0,2.8103642E0,1.3803967E0,2.1641818E2,7.640477E0,1.3752291E0,2.4785446E1,2.7446714E1,2.5573538E1,1.8079549E0,1.1124632E1,8.552082E0,4.598536E1,1.8797022E1,9.184825E1],"tree_param":{"num_deleted":"0","num_feature":"24","num_nodes":"105","size_leaf_vector":"1"}},{"base_weights":[-1.4827207E-3,8.705776E-2,-5.304544E-1,4.3853486E-1,1.3321013E-3,-5.805164E-1,1.0079894E0,3.0945462E-1,1.0453005E0,-2.7489513E-1,1.6249321E-1,-6.0953957E-1,2.5069106E-1,1.8521452E-2,5.4958846E-2,7.685974E-1,-8.934024E-3,5.282101E-1,1.1080304E0,-3.9400002E-1,4.8846787E-1,6.2586606E-1,7.109503E-3,-2.4098867E-1,-6.5074724E-1,-6.678764E-2,3.5354465E-2,5.9705913E-2,4.569391E-1,6.4562356E-1,-1.8482442E-1,4.960909E-2,-2.3757353E-2,1.1510279E0,5.7776374E-1,3.6075157E-1,-4.5414752E-1,5.7906915E-2,2.9865667E-1,-5.3845775E-1,7.362537E-1,2.7261263E-1,-1.5696366E-1,5.1606532E-2,-5.2203065E-1,-4.4262156E-1,-6.859755E-1,1.854903E-2,-2.503255E-2,3.438757E-2,-2.9556934E-2,-1.783949E-2,4.8353404E-2,-1.5702212E-2,4.4215646E-2,5.8836706E-2,2.3796171E-2,-4.1047446E-3,4.4055775E-2,-1.6990006E-3,5.9943642E-2,-2.5845606E-2,-8.264215E-3,-5.155588E-3,3.9477464E-2,-3.3206787E-2,6.218437E-3,-1.2821013E-2,4.4142935E-2,6.151417E-3,4.492433E-2,-2.0277357E-2,1.8549575E-2,2.2385439E-2,-3.1088168E-2,-3.0647362E-2,-5.080015E-3,-3.4597732E-2,-4.644113E-4],"categories":[],"categories_nodes":[],"categories_segments":[],"categories_sizes":[],"default_left":[0,0,1,0,0,1,0,0,0,0,0,1,0,0,0,0,0,0,0,0,0,0,0,0,1,0,0,0,0,0,0,0,0,0,0,0,0,0,0,0,0,0,0,0,0,0,0,0,0,0,0,0,0,0,0,0,0,0,0,0,0,0,0,0,0,0,0,0,0,0,0,0,0,0,0,0,0,0,0],"id":14,"left_children":[1,3,5,7,9,11,13,15,17,19,21,23,25,-1,-1,27,29,31,33,35,37,39,41,43,45,47,-1,-1,49,51,53,-1,-1,55,57,59,61,-1,63,65,67,69,71,-1,73,75,77,-1,-1,-1,-1,-1,-1,-1,-1,-1,-1,-1,-1,-1,-1,-1,-1,-1,-1,-1,-1,-1,-1,-1,-1,-1,-1,-1,-1,-1,-1,-1,-1],"loss_changes":[6.960234E1,3.8356827E1,1.6996147E1,1.9226437E1,4.5649166E1,5.1465454E0,4.488945E-3,3.0303226E1,8.213768E-1,3.4545242E1,4.6622604E1,2.8852692E0,1.1618476E0,0E0,0E0,1.0710342E1,1.432294E1,3.5451643E0,1.9598007E-1,1.5026268E1,6.192953E0,2.1296677E1,2.121298E1,8.314593E0,1.0130081E0,1.220937E0,0E0,0E0,1.2650202E1,8.836352E0,1.3819165E1,0E0,0E0,2.867508E-2,1.0412037E0,8.219604E0,5.420212E0,0E0,8.252218E0,1.3037834E0,2.1903801E1,1.7301182E1,3.9653698E1,0E0,2.0643477E0,1.611403E0,6.0759735E-1,0E0,0E0,0E0,0E0,0E0,0E0,0E0,0E0,0E0,0E0,0E0,0E0,0E0,0E0,0E0,0E0,0E0,0E0,0E0,0E0,0E0,0E0,0E0,0E0,0E0,0E0,0E0,0E0,0E0,0E0,0E0,0E0],"parents":[2147483647,0,0,1,1,2,2,3,3,4,4,5,5,6,6,7,7,8,8,9,9,10,10,11,11,12,12,15,15,16,16,17,17,18,18,19,19,20,20,21,21,22,22,23,23,24,24,25,25,28,28,29,29,30,30,33,33,34,34,35,35,36,36,38,38,39,39,40,40,41,41,42,42,44,44,45,45,46,46],"right_children":[2,4,6,8,10,12,14,16,18,20,22,24,26,-1,-1,28,30,32,34,36,38,40,42,44,46,48,-1,-1,50,52,54,-1,-1,56,58,60,62,-1,64,66,68,70,72,-1,74,76,78,-1,-1,-1,-1,-1,-1,-1,-1,-1,-1,-1,-1,-1,-1,-1,-1,-1,-1,-1,-1,-1,-1,-1,-1,-1,-1,-1,-1,-1,-1,-1,-1],"split_conditions":[1.9542854E0,-7.82667E-1,2.7063236E0,3.6682683E-1,-2.3528957E-1,2.7599182E0,6.2521696E-1,-6.8777454E-1,-5.836717E-1,1.0717794E0,-5.3921944E-1,-2.0012348E0,1.6113163E0,1.8521452E-2,5.4958846E-2,-1.0409919E0,-1.1427734E0,4.168832E-1,2.0734777E0,-1.1843663E0,-1.1843663E0,-4.546242E-1,1.7196651E-1,-4.655799E-1,-9.1392446E-1,3.3788633E0,3.5354465E-2,5.9705913E-2,1.600153E0,-4.3732935E-1,3.6724524E-3,4.960909E-2,-2.3757353E-2,3.943248E-1,1.723203E0,-2.8472736E-1,-3.7958643E-1,5.7906915E-2,1.4449506E0,-1.8812005E-1,-2.979663E-1,5.4733413E-1,1.2863202E0,5.1606532E-2,3.5285994E-1,6.176077E-1,2.1049585E0,1.854903E-2,-2.503255E-2,3.438757E-2,-2.9556934E-2,-1.783949E-2,4.8353404E-2,-1.5702212E-2,4.4215646E-2,5.8836706E-2,2.3796171E-2,-4.1047446E-3,4.4055775E-2,-1.6990006E-3,5.9943642E-2,-2.5845606E-2,-8.264215E-3,-5.155588E-3,3.9477464E-2,-3.3206787E-2,6.218437E-3,-1.2821013E-2,4.4142935E-2,6.151417E-3,4.492433E-2,-2.0277357E-2,1.8549575E-2,2.2385439E-2,-3.1088168E-2,-3.0647362E-2,-5.080015E-3,-3.4597732E-2,-4.644113E-4],"split_indices":[16,7,18,1,20,10,3,3,4,8,4,9,1,0,0,7,9,0,3,3,3,1,21,22,23,12,0,0,8,0,20,0,0,20,0,22,1,0,8,22,18,20,21,0,8,13,17,0,0,0,0,0,0,0,0,0,0,0,0,0,0,0,0,0,0,0,0,0,0,0,0,0,0,0,0,0,0,0,0],"split_type":[0,0,0,0,0,0,0,0,0,0,0,0,0,0,0,0,0,0,0,0,0,0,0,0,0,0,0,0,0,0,0,0,0,0,0,0,0,0,0,0,0,0,0,0,0,0,0,0,0,0,0,0,0,0,0,0,0,0,0,0,0,0,0,0,0,0,0,0,0,0,0,0,0,0,0,0,0,0,0],"sum_hessian":[1.4841191E3,1.272038E3,2.1208119E2,2.4861116E2,1.0234268E3,2.0600046E2,6.0807314E0,2.0624553E2,4.2365623E1,3.7683417E2,6.4659265E2,1.9930792E2,6.6925316E0,1.394313E0,4.6864185E0,8.387575E1,1.2236979E2,5.6026597E0,3.6762966E1,3.2639218E2,5.0441982E1,1.6161362E2,4.8497906E2,2.0732225E1,1.785757E2,4.450411E0,2.2421207E0,3.426319E1,4.9612556E1,2.5352507E1,9.701728E1,3.838706E0,1.7639537E0,3.2922718E1,3.840248E0,2.3722042E1,3.0267014E2,1.0013158E1,4.0428825E1,1.3659621E1,1.47954E2,1.8498114E2,2.9999792E2,3.2657728E0,1.7466454E1,2.7814474E1,1.5076123E2,2.2873802E0,2.1630306E0,4.09403E1,8.672256E0,6.129116E0,1.922339E1,8.7185936E1,9.831344E0,3.0999304E1,1.9234124E0,1.4391484E0,2.4010997E0,1.6779041E1,6.9430003E0,2.4799582E2,5.467432E1,2.2667048E1,1.7761776E1,1.1480784E1,2.1788368E0,1.8942667E1,1.2901134E2,1.502644E2,3.4716724E1,2.0412103E2,9.587689E1,1.3034476E0,1.6163006E1,1.8017908E1,9.796567E0,1.4941841E2,1.3428135E0],"tree_param":{"num_deleted":"0","num_feature":"24","num_nodes":"79","size_leaf_vector":"1"}},{"base_weights":[1.299971E-3,1.5033539E-1,-2.3803422E-1,4.9439886E-1,-1.4639199E-2,-2.3697076E-2,-4.729982E-1,-4.1536373E-1,5.9088224E-1,-5.230454E-1,1.1213169E-1,2.1007036E-1,-2.983633E-1,-1.7434104E-1,-5.156015E-1,-5.708548E-1,-4.850027E-2,7.9461926E-1,3.8936633E-1,-6.057098E-1,-1.8368703E-1,2.0627005E-1,-3.238998E-1,7.788125E-1,-2.8822279E-2,-1.18447155E-1,-3.416615E-2,1.15470104E-1,-3.2421585E-2,-3.7965715E-1,-5.545181E-1,-3.3116296E-2,4.969308E-2,3.024873E-1,-4.0073222E-1,9.78624E-1,3.4248936E-1,4.424538E-1,-4.3022308E-1,1.695039E-2,-6.3203734E-1,4.942959E-2,-3.103063E-1,-1.6367543E-1,3.3469453E-1,-2.3724115E-3,-6.4774525E-1,-1.3021967E-2,9.711527E-1,8.23638E-1,-1.2853317E-1,-4.6237996E-1,5.223717E-1,4.7144932E-1,-4.360138E-1,-3.344821E-2,-2.1873973E-1,-6.289827E-1,-4.7578126E-1,-1.9667307E-2,2.3115342E-2,-1.2929179E-2,4.5649417E-2,-2.7301172E-2,1.4610902E-3,1.2938355E-2,5.3178668E-2,-3.2457154E-2,2.5199864E-2,1.377705E-2,4.0331293E-2,-3.1561986E-2,1.901405E-2,-3.2526135E-2,-1.7167317E-3,-2.8986907E-2,2.2815156E-3,6.9568837E-3,-2.271828E-2,2.2412919E-2,-3.9178985E-3,-3.0902673E-2,2.0875487E-2,-3.4577068E-2,2.2084612E-2,4.798707E-2,-2.5354246E-2,5.8444835E-2,1.170747E-2,-2.5613962E-2,5.846554E-2,3.3352596E-3,-2.5357772E-2,1.3698962E-3,-2.9729096E-2,-9.532224E-3,4.4582173E-2,3.953446E-2,-1.1347503E-3,2.1126486E-2,-3.1433996E-2,-2.450989E-2,1.7794428E-2,-3.1952016E-2,2.5559764E-3,1.4118679E-2,-2.5540864E-2],"categories":[],"categories_nodes":[],"categories_segments":[],"categories_sizes":[],"default_left":[1,1,0,1,0,0,0,0,0,0,0,0,1,0,0,1,0,0,1,0,0,0,0,0,0,0,0,0,0,0,0,0,0,0,1,0,0,0,0,0,0,0,0,0,0,0,0,0,0,0,0,0,0,0,0,0,0,0,0,0,0,0,0,0,0,0,0,0,0,0,0,0,0,0,0,0,0,0,0,0,0,0,0,0,0,0,0,0,0,0,0,0,0,0,0,0,0,0,0,0,0,0,0,0,0,0,0],"id":15,"left_children":[1,3,5,7,9,11,13,15,17,19,21,23,25,27,29,31,33,35,37,39,41,43,45,47,49,51,-1,53,-1,55,57,-1,59,61,63,65,67,69,71,-1,73,-1,75,77,79,81,83,85,87,89,91,93,95,97,99,-1,101,103,105,-1,-1,-1,-1,-1,-1,-1,-1,-1,-1,-1,-1,-1,-1,-1,-1,-1,-1,-1,-1,-1,-1,-1,-1,-1,-1,-1,-1,-1,-1,-1,-1,-1,-1,-1,-1,-1,-1,-1,-1,-1,-1,-1,-1,-1,-1,-1,-1],"loss_changes":[5.297388E1,5.1956596E1,2.8690796E1,2.6283813E1,3.999098E1,1.9266945E1,3.3687515E0,1.628336E0,1.0718803E1,3.3626213E0,2.0456718E1,2.205537E1,9.47221E0,4.945011E0,1.0453262E0,1.184967E0,1.324683E0,1.0697105E1,6.1513405E0,2.6801414E0,4.1202116E0,1.9493525E1,9.223108E0,7.3235226E0,9.89452E0,2.12254E1,0E0,4.690831E0,0E0,2.4607992E0,7.700386E-1,0E0,8.285338E-1,2.101428E0,3.4633833E-1,5.4554596E0,6.7167935E0,7.6288204E0,1.6805139E0,0E0,1.0472221E0,0E0,2.323082E0,9.403095E0,1.4297211E1,1.2009731E1,2.4111805E0,5.469625E0,5.3568153E0,6.2303677E0,7.7192063E0,4.0622797E0,9.048873E0,2.284053E0,1.834072E0,0E0,6.019552E0,6.52565E-1,2.6079712E0,0E0,0E0,0E0,0E0,0E0,0E0,0E0,0E0,0E0,0E0,0E0,0E0,0E0,0E0,0E0,0E0,0E0,0E0,0E0,0E0,0E0,0E0,0E0,0E0,0E0,0E0,0E0,0E0,0E0,0E0,0E0,0E0,0E0,0E0,0E0,0E0,0E0,0E0,0E0,0E0,0E0,0E0,0E0,0E0,0E0,0E0,0E0,0E0],"parents":[2147483647,0,0,1,1,2,2,3,3,4,4,5,5,6,6,7,7,8,8,9,9,10,10,11,11,12,12,13,13,14,14,15,15,16,16,17,17,18,18,19,19,20,20,21,21,22,22,23,23,24,24,25,25,27,27,29,29,30,30,32,32,33,33,34,34,35,35,36,36,37,37,38,38,40,40,42,42,43,43,44,44,45,45,46,46,47,47,48,48,49,49,50,